solver_type L2R_L1LOSS_SVC_DUAL
nr_class 7
label 0 1 2 3 4 5 6
nr_feature 31318
bias -1
w
0.003942433899776172 -0.003180152333450745 0.003162336720756895 -0.003584820106022351 -0.003908140732466222 -0.004426931792978526 -0.003009465172014242 
0.006236822937642027 -0.002098995785710507 -0.003197675599285105 -0.002297825305061629 -0.002482122364023392 -0.002033733110854222 -0.001276550173832619 
0.006236822937642027 -0.002098995785710507 -0.003197675599285105 -0.002297825305061629 -0.002482122364023392 -0.002033733110854222 -0.001276550173832619 
0.006236822937642027 -0.002098995785710507 -0.003197675599285105 -0.002297825305061629 -0.002482122364023392 -0.002033733110854222 -0.001276550173832619 
0.006236822937642027 -0.002098995785710507 -0.003197675599285105 -0.002297825305061629 -0.002482122364023392 -0.002033733110854222 -0.001276550173832619 
0.003511498665176854 -0.002704107579513778 0.0007960144817163055 -0.002162616843992298 -0.002336069509489104 -0.003643259591896131 -0.004734036692355695 
0.003511498665176854 -0.002704107579513778 0.0007960144817163055 -0.002162616843992298 -0.002336069509489104 -0.003643259591896131 -0.004734036692355695 
0.003016810197071325 -0.002976813245674761 -0.0009465033783714166 -0.002311001233495989 -0.00318858032018484 -0.004458440295576259 -0.00130321264152478 
0.006236822937642027 -0.002098995785710507 -0.003197675599285105 -0.002297825305061629 -0.002482122364023392 -0.002033733110854222 -0.001276550173832619 
0.01456240244685705 -0.004891550082729339 -0.002462067815539642 -0.004439952227708832 -0.001320738128583915 -0.006796652789595526 -0.0008375558568205501 
0.01247364587528405 -0.004197991571421014 -0.006395351198570209 -0.004595650610123258 -0.004964244728046784 -0.004067466221708444 -0.002553100347665238 
0.009999438815767535 -0.004329953772704669 -0.006057994533654491 -0.00665779226231611 -0.005265981117935874 0.002861367208254111 -0.003007837415468276 
-0.01330410016039125 -0.01400674608147435 -0.02015060549405886 -0.006320666527970786 -0.01341102785822658 -0.007190584372245498 -0.0117882226711123 
0.01173967255755365 -0.003950973672060455 -0.01047500274681282 -0.004325233687984596 -7.187374150924983e-05 -0.003828128685004829 -0.002402871012039513 
0.0109335174675473 0.003522991658641989 -0.005969972019197471 -0.007684845558749738 -0.006480491693654766 -0.006449900147855267 -0.002428142560415573 
0.01247364587528405 -0.004197991571421014 -0.006395351198570209 -0.004595650610123258 -0.004964244728046784 -0.004067466221708444 -0.002553100347665238 
0.01247364587528405 -0.004197991571421014 -0.006395351198570209 -0.004595650610123258 -0.004964244728046784 -0.004067466221708444 -0.002553100347665238 
-0.006460236981759756 -0.01234258038893108 -0.01281974937862042 -0.007554165954402263 -0.01938647981257121 0.01435129975360778 -0.01272457424878311 
0.0051757978729053 -0.002871585308379296 -0.003665264413770438 -0.002861517521264522 -0.002831490093539922 0.001396277694840739 -0.00221515440737241 
0.003720985046708257 0.003263203051483684 -0.003218144891588857 -0.001993026431120611 -0.004868282803854799 0.002341906323501104 0.001824667009017095 
-0.001552733955070768 -0.008644288122760435 0.01408679065698158 -0.009788360514489182 -0.01489306542349424 -0.006179916090436405 -0.02043115351979992 
-0.03939876537285374 -0.01289631911881929 0.00668822916579883 -0.03546429955713085 -0.01893064488721771 -0.0480558684260679 -0.02692418133044248 
-0.05142626567281582 -0.02646744585966171 -0.01178419217629698 -0.04858251516602984 -0.00946569662701169 -0.04647012122052968 -0.03214453253632913 
-0.004562021007095914 -0.009102047886813569 0.002312329733912922 -0.0005294319827504119 0.003805882617219686 -0.0120119577840494 -0.006189071679327384 
0.000443634095649756 -0.009181856683257363 0.003217949966392837 -0.008041858788128749 -0.003800775987005718 -0.009040170879794201 -0.00443945174157957 
0.000443634095649756 -0.009181856683257363 0.003217949966392837 -0.008041858788128749 -0.003800775987005718 -0.009040170879794201 -0.00443945174157957 
-0.008364834543333742 -0.01800316515401642 -0.01191546388415075 0.01106337661298339 0.02100895100143989 -0.02287440728949454 -0.01845985454238609 
-0.02182002974787641 0.001946539875724227 -0.01636198771742234 0.01057948450957804 -0.01896910007703098 -0.01952944125664295 -0.02830246714837577 
-0.008244309183126779 -0.009802631816549244 -0.01863553157715969 -0.0100003544759529 -0.01938156538575053 -0.02011481054804128 -0.008233282854631698 
-0.00550852768246527 -0.01919535639637127 -0.01347079112216464 0.004867747495730802 -0.01781665904928131 -0.006722424180476001 -0.009046156528360917 
0.00250861811149552 -0.002554088067094863 -0.006445505979730948 -0.002173147354920709 -0.001753422144818075 -0.006471150869330998 0.004410443792578343 
0.005672850589704913 0.003997298371842205 -0.00172057721919704 -0.01014261112988907 0.002449682342018282 -0.009719508861554071 0.004973350468121021 
-0.002166900238230799 -0.01193557212564372 -0.00356268883390824 -0.007716771261817194 0.001373332884746297 -0.009255610010369515 -0.00468587725112242 
0.006969221097932195 -0.005472013265731056 -0.003149458874358738 -0.005437180850680102 0.001902802277447308 -0.00100373003286442 0.00111225409240329 
0.0002343094125023475 -0.01065651303411204 -0.01276610079053367 -0.01502638110691203 -0.01537567575560446 -0.003750130209471904 5.620917866458874e-05 
-0.0003619064884973592 -0.00024702067545961 -0.006135013898984902 -0.004342972051025528 0.001507503321538253 -0.006183288123825847 -0.00482344275075449 
0.001321065660376686 0.001062408397670951 -0.007565430520023069 -0.00674209727534823 -0.008227043267904022 -0.008062088203690304 -0.00345748992516804 
0.006907755278982137 -0.002209780288544467 -0.001845317558191732 -0.003224081133546483 -0.001341619619045739 -0.002053808040966617 -0.003479506351590763 
0.0008915218587828607 -0.01279366705847559 -0.00791988220241917 0.009502788888397526 -0.0005876508350382438 -0.001264150594069726 -0.009625945033288699 
0.006907755278982137 -0.002209780288544467 -0.001845317558191732 -0.003224081133546483 -0.001341619619045739 -0.002053808040966617 -0.003479506351590763 
0.006907755278982137 -0.002209780288544467 -0.001845317558191732 -0.003224081133546483 -0.001341619619045739 -0.002053808040966617 -0.003479506351590763 
0.01429492426546225 -0.004480385676860807 -0.003725167138686323 -0.004221000292026308 -0.001705849419272619 -0.001895653761271218 -0.0053278161090911 
0.006907755278982137 -0.002209780288544467 -0.001845317558191732 -0.003224081133546483 -0.001341619619045739 -0.002053808040966617 -0.003479506351590763 
0.006907755278982137 -0.002209780288544467 -0.001845317558191732 -0.003224081133546483 -0.001341619619045739 -0.002053808040966617 -0.003479506351590763 
0.01148498868256253 -0.004568091604277062 -0.001902297150350278 -0.005768333060632604 -0.001163658244766527 -0.002328018997508126 -0.004410400205971394 
0.006907755278982137 -0.002209780288544467 -0.001845317558191732 -0.003224081133546483 -0.001341619619045739 -0.002053808040966617 -0.003479506351590763 
0.006907755278982137 -0.002209780288544467 -0.001845317558191732 -0.003224081133546483 -0.001341619619045739 -0.002053808040966617 -0.003479506351590763 
-0.0009403267232480544 -0.003814682475322873 0.002867378814969228 -0.0006800164673548001 -0.008465173729826501 0.00148436719281779 -0.009298082591613466 
0.006907755278982137 -0.002209780288544467 -0.001845317558191732 -0.003224081133546483 -0.001341619619045739 -0.002053808040966617 -0.003479506351590763 
0.01546011557846255 -0.01136969856517751 -0.006244933694384383 -0.004963232199692302 0.001136095856534803 -0.009137676260834327 -0.008776099649140104 
-0.006595244808844619 -0.02143748784422519 0.007954072114616519 -0.01538806170356059 -0.01608287732447367 -0.002419742735577953 -0.007630979747991472 
-0.05151947531322226 -0.05140980372355966 -0.06977978023941353 -0.0507599519387594 -0.04612003149616983 -0.03388564951090356 -0.05314039918772066 
0 0 0 0 0 0 0 
0.01047718548745506 -0.0280938420250842 -0.01426298633192804 -0.01151370511467129 -0.01741935081637873 -0.00244328205045634 -0.01493223076219067 
0.002485671468172343 -0.01254098439335537 -0.01681356206582395 -0.001109648931419651 -0.01792624610016059 -0.0203640728024415 -0.01086303805361357 
-0.00369923779965998 -0.01538048767256782 -0.02737806161393429 0.006179097478351743 -0.03036662033724055 -0.01396950909028775 -0.02316338549681618 
-0.0003579616647752019 -0.003846265112394631 -0.02265762435138519 0.003666820134485034 -0.01852261725045604 -0.01580645261258732 -0.01556851197252013 
-0.004033613294624131 0.002178493658227075 -0.0218525702056428 -0.03372911859510803 -0.01122795854859035 -0.02608958329497333 -0.01573021839031326 
0.01676321935557118 0.006704027498058119 -0.007914889060043581 -0.01986526612354595 -0.01116910279098753 -0.01500511298472293 -0.004315031613575326 
0.01150773207794597 0.007043053025493248 -0.007295759405504142 -0.01096572578108069 -0.00930273256208978 -0.02043758843706697 -0.009384385212330409 
-0.004911723881068022 -0.01588328643587003 -0.01530954157203231 -0.02486883927431802 -0.02537260025096243 -0.02437307058174061 -0.0237942923108992 
0.02076331155606677 -0.01880502250903186 -0.007351728800225866 -0.02113879710302483 -0.01066330703499544 -0.01566031131597456 -0.008891413462259976 
-0.0005032758052787735 -0.02602171640467586 -0.02222616992589979 -0.004809091979627557 -0.02883505449887524 -0.002090453414242323 -0.02261846326612837 
0.007412142323314504 -0.001701094597408714 -0.008187798580066744 0.004462366276934838 -0.001960574666794847 -0.00723876976991423 -0.009760181673119791 
-0.008227716012366578 0.000468064219577627 -0.007247175910883064 -0.005586418111335519 -0.00733112851071206 -0.03135035176911568 -0.01829617237547912 
-0.00390132903011948 -0.02276847374111014 -0.0021149073071394 -0.0009519419845428851 -0.01353258528469873 -0.0008606356611278566 -0.0126686457373642 
0.001966573576232329 -0.003532830589987702 -0.005398705331171845 0.002190618696209915 -0.004654921423307787 0.004597063395961355 -0.003639259365140992 
0.009887016381204348 -0.0009059783907915799 -0.002526171863436092 -0.004370831523348515 -0.002510153721523836 -0.003033872754184304 -0.003553850249925238 
0.001952333022057104 -0.01478490007201504 0.003231295377295557 -0.00738270517574548 0.0110530512413881 -0.01773414501247455 -0.009780933656730306 
0.007620113464668545 -0.007913330634376723 -0.007658876265164975 -0.01015687863846207 0.0041617470771768 -0.0002779153441323822 -0.00371571703453307 
-0.0008556520233842077 -0.01024372234034676 -0.005037387999054995 0.01208811115303794 -0.004172601191962892 -0.01167854342770292 -0.01145847485774234 
0.007181371003625079 -0.004221073102966364 -0.007697056368985523 -0.003283374829694605 0.006695175570529948 0.00196982195217557 -0.003982458534419945 
-0.0009571343232126829 -0.003135341750605044 -0.01106832765239163 -0.01272957995869786 -0.0117561890603211 -0.007077124948989142 0.002271801358920769 
0.01076308203236416 -0.003012027972901723 -0.005269451703752941 -0.003800181063529054 -0.00411127263250714 -0.004163882451754028 0.003116438386049628 
0.018322158160716 -0.0147984043948941 0.00283679536117777 -0.01353093695990184 -0.02355838253120012 -0.009420847936823754 0.01109104270954536 
0.007146029523630981 -0.01130543469281878 -0.007023199011291907 -0.01219357838701474 -0.00944398268879869 -0.005068507657319038 0.0105829884791596 
0.009881268887099661 -0.008178384363329277 3.505752939178583e-05 -0.007990916791262055 -0.006018850978131381 -0.001520520103671204 -0.008172142009771304 
0.01429173769945545 -0.004921462259988934 -0.01131995079151973 -0.004028074957525754 0.003678154758982337 -0.004714577126828394 -0.006114968951375677 
-0.0003223132086604155 0.002652436589981742 -0.01284400972417686 0.006766395277327857 -0.004546459434132105 -0.007875037484204192 -0.01795183882181373 
0.009734374907987963 -0.002087339602929635 -0.0115002256560701 -0.006991505641207799 -0.02205357921070309 -0.003644143036786987 -0.001306190539393236 
0.006151927330226615 -0.0009059783907915799 -0.001512872585776705 -0.001660094215667907 -0.001871807779600407 -0.00151239418205257 -0.0007569515557785385 
0.005315375573862575 -0.0009059783907915801 -0.002245812921665659 -0.004209617134443061 -0.002305308359153495 0.004988895488487821 -0.0007569515557785389 
0.00824251354170622 -4.989262357616365e-05 -0.002152918237648264 -0.005789425104088426 -0.001789268341403938 -0.001445703484707098 -0.00089839171701775 
0.01420536328092217 -0.005257357261857662 -0.009948023500019247 -0.01075667516551441 -0.009280760698758325 -0.008357739608177574 -0.007738090553751047 
-0.01063839008141562 -0.02418590367540379 -0.03982489857063696 -0.03128121323742244 -0.02511847136800941 -0.008209216857523585 -0.03137874451160806 
-0.01147768571882874 -0.02362183175676525 -0.03980027613330148 -0.03247740226784844 -0.02394202234288921 -0.007928799039132482 -0.0313714865334296 
-0.0027446285784294 0.007264141032580365 -0.010059789123044 -0.005198731726818418 -0.002073762749605828 -0.0121246766133292 -0.005159598008450077 
-0.007374275391108998 -0.01183112042401966 -0.009361852205778797 -0.00923996183692837 -0.004582529556366914 -0.01340486800564231 -0.0005445618374913485 
0.002665447317395547 -0.002221302591811778 -0.002316609615286534 -0.0002679373403064006 -0.005632257328830999 0.002400955606862549 -0.001345203820206125 
0.009905317057053832 -0.00676667820662307 -0.001282804969767976 -0.0006109522491849421 -0.009157275546468705 0.002240819450087913 -0.01272284790685133 
0.006536550537634342 -0.0009626208535196813 -0.001607458538293024 -0.004472805621123116 -0.001988834635282418 -0.001606950224401727 -0.0008042767466671455 
-0.02159271693219822 -0.02032611942508996 0.02450609456069876 -0.02275736866307426 -0.02390028813024885 -0.01822376534651259 -0.01596850428251181 
-0.01728336497666828 -0.02139745839417341 0.0205867389862726 -0.02155311590224145 -0.02919854195156572 -0.02375256353883636 -0.01045437955616019 
0.01566564553646918 -0.002777086016406693 -0.005526938114460929 -0.004178094863996868 -0.00239946571166548 -0.002900090773246384 -0.005964114961147696 
0.01959220268685378 0.0006135046830391884 -0.005237832461905717 -0.006609506957026795 -0.003098527222744657 -0.0006815442456150772 -0.0112304873339552 
0.01566564553646918 -0.002777086016406693 -0.005526938114460929 -0.004178094863996868 -0.00239946571166548 -0.002900090773246384 -0.005964114961147696 
0.0145548128973131 -0.005312554951947998 -0.006800495772359556 -0.00540078766978047 -0.002697866837661331 -0.004280946429797035 -0.002841563186666902 
0.006536550537634342 -0.0009626208535196813 -0.001607458538293024 -0.004472805621123116 -0.001988834635282418 -0.001606950224401727 -0.0008042767466671455 
0.011744636457733 -0.003395444037359241 -0.004937288010770916 -0.001377281316466694 -0.001455539818697991 -0.006143363139650728 -0.004632807233936523 
0.002003081986849302 -0.003571739994018185 -0.00519363855096022 0.001573977250335538 0.0008477891872489166 -0.005100878773949342 -0.003838238451334114 
-0.002831612916730645 -0.01256732347330866 -0.00955179244188217 -0.01285658189205034 -0.00164049542194422 -0.01375702416558006 0.001253722028587103 
-0.005341624770951585 0.00124088695085553 -0.01248279034787532 -0.006151756558729572 -0.009216995677986364 -0.02271876636505939 -0.01161988342332089 
0.0003631491284544014 0.006328981845750925 -0.00219907934235624 -0.009150954031463227 -0.003380813456798822 -0.006903595795146094 -8.299353786621922e-05 
0.002153213166563528 -0.002980840096246527 -0.001080996854467203 -1.355252715606881e-20 0.004950357075054449 0.005764117562133256 0.002508283844575822 
-0.005906819715441563 -0.006002230567746375 -0.00508013427842986 0.00278872197142037 -0.008499707635466284 -0.005084532515886231 0.01194044571264 
-0.009764007162940373 -0.01491655211579501 -0.02270831172426741 -0.004065589215444479 -0.006607098270626755 0.004506133350394139 -0.009782200639297993 
0.001521384033668233 -0.0003899406650861368 0 0.006539817189488657 -0.003144111789280375 -0.002358682462380876 -0.0005275287366479405 
0.00441678172385707 -0.002547788123141825 -0.002166076381458017 0.00649992206322649 -0.001926959217543292 0.006508281474167229 -0.006235704340157455 
-0.03104762471124064 0.002555763547083837 -0.01686243884418066 -0.005045905367525787 -0.02898754802123251 -0.02272513753767586 -0.02307853136242764 
-0.001441677374779518 -0.001977480104742506 -0.01330244814746303 -0.009313656401189583 -0.009462939191164725 -0.002960292455936518 -0.0142724818329104 
0.008837723844219686 -0.001289571405474389 -0.001267391991538355 -0.0009749212415182283 -0.0004404134725211715 -0.001044506189961973 -0.006547388043924365 
0.008837723844219686 -0.001289571405474389 -0.001267391991538355 -0.0009749212415182283 -0.0004404134725211715 -0.001044506189961973 -0.006547388043924365 
0.00223340651978222 -0.002865267831954381 -0.0004353482209862106 -0.003589011334444843 0.01046967068066599 -0.001388071289650276 -4.406561452788467e-05 
0.002482509827297988 -1.241249703035977e-05 0 -1.355252715606881e-20 -0.0004679484600614792 -0.0002621157687360243 -4.89804789869001e-05 
-0.001080920421011059 0.006203441112700907 -0.002528525380784488 0.0005958298412624931 -0.004386762592941155 -0.003015931188009176 -0.003922798887886436 
-0.003063643210630493 -0.01100979115426172 -0.01248524441328146 -0.01817866108818182 -0.0009640698697450998 -0.001827061624605671 -0.003095391353445119 
0.004484677214349283 0.001624206471593194 -0.004978725511738122 -0.008166136997000639 -0.007157575716574792 -0.006566909044566012 -0.003641022431910241 
0.002482509827297988 -1.241249703035977e-05 0 -1.355252715606881e-20 -0.0004679484600614792 -0.0002621157687360243 -4.89804789869001e-05 
0.008448014618204408 -0.001274995134381904 -0.002473421159425281 -1.305583708442486e-05 -0.004527567681559582 -0.002084251322394394 0.00183043799484461 
0.002482509827297988 -1.241249703035977e-05 0 -1.355252715606881e-20 -0.0004679484600614792 -0.0002621157687360243 -4.89804789869001e-05 
0.002482509827297988 -1.241249703035977e-05 0 -1.355252715606881e-20 -0.0004679484600614792 -0.0002621157687360243 -4.89804789869001e-05 
0.002482509827297988 -1.241249703035977e-05 0 -1.355252715606881e-20 -0.0004679484600614792 -0.0002621157687360243 -4.89804789869001e-05 
0.002482509827297988 -1.241249703035977e-05 0 -1.355252715606881e-20 -0.0004679484600614792 -0.0002621157687360243 -4.89804789869001e-05 
0.007447529481893964 -3.723749109107932e-05 0 -2.710505431213761e-20 -0.001403845380184437 -0.0007863473062080724 -0.0001469414369607003 
0.004965019654595976 -2.482499406071955e-05 0 -2.710505431213761e-20 -0.0009358969201229584 -0.0005242315374720485 -9.79609579738002e-05 
-0.002355701972067682 -7.763915366542085e-05 0.002991762338437601 -0.00509420609888751 0.01826742017552377 -0.006147832191417669 -0.0020305406685858 
-0.003816108971103462 -0.01094077598799141 -0.01910882153227301 -0.01000547845215524 -0.003246196820598352 -0.00258732436075608 -0.01012530223271958 
0.004965019654595976 -2.482499406071955e-05 0 -2.710505431213761e-20 -0.0009358969201229584 -0.0005242315374720485 -9.79609579738002e-05 
0.02970268034508712 -0.005822077453234952 -0.003837271146684787 -0.005231526500791425 -0.005610063722866507 -0.006515904819626901 -0.0005994063351243844 
0.004965019654595976 -2.482499406071955e-05 0 -2.710505431213761e-20 -0.0009358969201229584 -0.0005242315374720485 -9.79609579738002e-05 
0.004965019654595976 -2.482499406071955e-05 0 -2.710505431213761e-20 -0.0009358969201229584 -0.0005242315374720485 -9.79609579738002e-05 
0.004965019654595976 -2.482499406071955e-05 0 -2.710505431213761e-20 -0.0009358969201229584 -0.0005242315374720485 -9.79609579738002e-05 
0.002482509827297988 -1.241249703035977e-05 0 -1.355252715606881e-20 -0.0004679484600614792 -0.0002621157687360243 -4.89804789869001e-05 
0.002482509827297988 -1.241249703035977e-05 0 -1.355252715606881e-20 -0.0004679484600614792 -0.0002621157687360243 -4.89804789869001e-05 
0.002482509827297988 -1.241249703035977e-05 0 -1.355252715606881e-20 -0.0004679484600614792 -0.0002621157687360243 -4.89804789869001e-05 
-0.0006749008379214618 0.003635115965740554 -0.002056346371519655 -0.008461098713378903 0.003056725855060952 0.003914841818362691 -0.002894836817007492 
0.002482509827297988 -1.241249703035977e-05 0 -1.355252715606881e-20 -0.0004679484600614792 -0.0002621157687360243 -4.89804789869001e-05 
0.002482509827297988 -1.241249703035977e-05 0 -1.355252715606881e-20 -0.0004679484600614792 -0.0002621157687360243 -4.89804789869001e-05 
0.002482509827297988 -1.241249703035977e-05 0 -1.355252715606881e-20 -0.0004679484600614792 -0.0002621157687360243 -4.89804789869001e-05 
0.008278115269560699 -0.01713023700445733 -0.009100252136306419 -0.01132060867259961 -0.01218752391828975 -0.01494613818525641 -0.01336929710360803 
-0.003813699212418789 -0.00832546440456298 -0.004875652487730689 0.01399954164431254 -0.003497892834653433 -0.004491458419515827 -0.003353336151517524 
-0.002806638613566869 -0.0007315180210829361 -0.01198459995599765 0.003833338960196343 -0.007486649925416694 -0.001881559728506166 -0.003763594258576556 
-0.005523002788287074 -0.01091272894948057 -0.004864477651874316 0.001875255490460736 -0.001607449203058396 -0.004264074151997784 0.003810224817861264 
-0.0030833478657851 -0.001825871183251111 -0.01003712180184741 -0.01042361963219662 -0.006269594866052149 0.00261126742121327 -0.00249907563454826 
0.0001981420548316895 -0.0006903584356314248 -0.006585075566768873 -0.00173848961188637 0.0001548326607297215 0.0007627391238454294 0.007655165578769394 
-0.00530915846081957 0.001390213871865581 -0.01154300414911489 0.008102696678006716 -0.007154744893485649 -0.002347549296406264 -0.001233785815811922 
-0.01620715957734054 -0.00507739341226526 -0.0221529591148785 -0.01303151039434643 -0.01145032616769472 0.006967996584762601 -0.007094040883166075 
-0.02094721472847363 -0.01538794022955266 -0.01993709880276471 -0.007080399968486768 -0.01916888760449024 -0.009651545939939271 0.0003894130138292953 
0.002482509827297988 -1.241249703035977e-05 0 -1.355252715606881e-20 -0.0004679484600614792 -0.0002621157687360243 -4.89804789869001e-05 
0.002482509827297988 -1.241249703035977e-05 0 -1.355252715606881e-20 -0.0004679484600614792 -0.0002621157687360243 -4.89804789869001e-05 
0.008837723844219686 -1.168212182829124e-05 0 -0.0008128289820617343 -0.00080890481679397 -0.001509455981594534 -4.609837338397662e-05 
0.002482509827297988 -1.241249703035977e-05 0 -1.355252715606881e-20 -0.0004679484600614792 -0.0002621157687360243 -4.89804789869001e-05 
0.00159775709470976 -0.001420509718523782 -0.001081549748247492 -0.004442179473452386 -0.001759914333622118 0.0007155052043357897 0.0002541368813326079 
0.003049739633966856 -0.002721031771346824 -0.0002319890290203282 -0.002711891480427348 -0.002202438176083254 0.009933155206407364 0.002604328436563144 
-4.784714897964502e-06 -0.004224323141453287 -0.0006875818165048557 -0.006014917014138707 -0.003469802763261619 -0.0003000236876817287 0.005126985217592179 
0.002482509827297988 -1.241249703035977e-05 0 -1.355252715606881e-20 -0.0004679484600614792 -0.0002621157687360243 -4.89804789869001e-05 
0.004001117816698436 -0.00509926549776869 -0.003849998865242847 0.007855531463121904 -0.00365911641534134 -0.00658964583390832 -0.005443948841930757 
0.004420893390720676 -0.003547153996909882 -0.004770249000446355 -0.005356175386683849 0.002113991572895756 -0.004886752344801263 -0.01247328181137227 
-0.003042721236666204 -0.02178873350150363 -0.01872709110584883 -0.01755488842992287 -0.00986712540606325 -0.007310172721740137 -0.01306797652834822 
-0.001036799074442827 -0.01392984156054852 -0.01621821567242019 -0.01536884201803493 -0.003222005372518611 -0.01421577929892474 -0.0111251642736248 
-0.02012274670251547 -0.01807733956347689 -0.01772757051508423 -0.01958915903238022 -0.01077990336222149 -0.005642488124554985 -0.01908860376013311 
-0.0144726385438011 -0.00369024358079242 -0.01760101531345879 -0.01247507128133006 -0.02725726973650632 -0.0138461152657733 -0.01003148158799591 
-0.01192234481159031 -0.02795292110680809 -0.02682684238322228 -0.01651977765919027 -0.007633829981846894 -0.0211929950116962 -0.006703777546310769 
0.003125710976858562 -0.001814480909312045 -0.001138307508599657 0 -0.0001032141646286171 -0.001541577204309645 -0.0003757891589430561 
0 -0.000387352631497437 -0.000431550063640291 0.001029468708038167 -0.0001032141646286172 -0.001541577204309645 -0.0003757891589430559 
-0.002134651528412586 -0.0003873526314974372 -0.000431550063640291 0.00145527974417726 -0.0001032141646286172 -0.001541577204309645 -0.0003757891589430555 
0.03427335911090024 -0.006777519239735062 -0.01026747142523674 -0.01330160285924947 -0.008131322516999807 -0.01091034707640706 -0.001719106682009731 
-0.004403852027061963 -0.002483489197317361 -0.002303775498665835 -0.0008999540585501648 -0.0003047477514411127 0.009226938547867483 -0.0001379571149736701 
0 -0.0004052213143818815 -0.0004514575861634757 0 -0.0001079754622860047 -0.001612690582574844 -0.0003931244156743888 
0 -0.0004052213143818815 -0.0004514575861634757 0 -0.0001079754622860047 -0.001612690582574844 -0.0003931244156743888 
0 -0.0004052213143818815 -0.0004514575861634757 0 -0.0001079754622860047 -0.001612690582574844 -0.0003931244156743888 
-2.479111575151284e-05 -0.0006684699882783411 -0.0006223141629766564 -0.005379379500863283 0.006111393933793577 -0.003396273680847412 -0.001105198977224076 
0 -0.0004052213143818815 -0.0004514575861634757 0 -0.0001079754622860047 -0.001612690582574844 -0.0003931244156743888 
-1.084202172485504e-19 -0.0003734442336653698 0.001440089115948937 0.001826122367073537 -9.950812639154695e-05 -0.002014684725082894 -0.0003622959625670489 
0 -0.0004052213143818815 -0.0004514575861634757 0 -0.0001079754622860047 -0.001612690582574844 -0.0003931244156743888 
0.0006607667150280318 -0.006135742257947396 0.0006161146423443269 0.0001260401295490784 -0.008626549940211678 -0.00896185044086114 0.003693171709507491 
-0.001100650631332562 -0.001911403503448388 -0.002648694576359372 -0.001019718100590992 0.005522469734373174 -0.004326243697171506 -0.0007622014564559463 
-0.004855322108179509 -0.007559170690836655 -0.02188822250639585 -0.007200015466932628 -0.01810374666508703 -0.0114852753863566 -0.02005742685665785 
-0.01993140468823417 -0.02360727320172707 -0.02565725830939153 -0.01393666680615584 -0.01632133599149869 -0.009335727978887678 -0.0272077766199227 
0 -0.0004052213143818815 -0.0004514575861634757 0 -0.0001079754622860047 -0.001612690582574844 -0.0003931244156743888 
-0.004726988597706576 -0.01516785194489041 -0.004453033142775924 0.0230791771430762 -0.01022454277479899 -0.01134616054946197 -0.01680994465678564 
-0.007599553924229793 -0.0157142132593199 -0.007990827406017652 0.02300791481937343 -0.00784746042050195 -0.01191748326617877 -0.006508785616589427 
-0.003237297527703165 0.003483210779467115 -0.006348442775567139 0.01078108694149644 -0.00878403005445447 -0.01288492076492129 -0.008100299232430355 
0.004634350045157213 -0.0004431426824426622 -0.008893369960609772 0.01760181309261433 -0.01207898637872926 -0.003345213200295103 -0.00849066958917059 
0 -0.0004052213143818815 -0.0004514575861634757 0 -0.0001079754622860047 -0.001612690582574844 -0.0003931244156743888 
0 -0.000387352631497437 -0.000431550063640291 0 -0.0001032141646286172 -0.001541577204309645 -0.0003757891589430559 
-0.0005918952314533651 -0.005902179373167058 -0.01005506635542129 -0.006297533391534877 -0.01723924995135901 -0.00483969108674625 0.002131316801450101 
0.02306147206798151 0.001605562566236231 -0.009267440591869732 -0.01385671449354804 -0.001552756421054725 -0.01196017327709432 -0.01115273477795048 
0.001729663124309139 -0.006512053899075662 -0.003079835213325395 -0.00831662589254561 -0.002576475525305708 -0.008684567117405074 0.008624348041326243 
0 -0.000387352631497437 -0.000431550063640291 0 -0.0006825436293564212 -0.002197193725147081 0.0002854291798054554 
0.002865082061738826 -0.000541485658256459 -0.004730907610120869 6.918194236237153e-05 -0.00667055143507712 -0.004847006117668726 -0.01158581753477681 
8.809142651444724e-19 -0.003533484717840648 -0.002331309233729613 0.001828373352871127 -9.646345604632905e-05 -0.002843051581461586 -0.002247702187000171 
-0.03367094128748693 -0.0283214949109124 -0.01744968432386148 -0.01064558941311736 -0.01177655634361525 -0.01819701808505005 -0.02124401635600436 
0 -0.0004052213143818815 -0.0004514575861634757 0 -0.0001079754622860047 -0.001612690582574844 -0.0003931244156743888 
0 -0.001739656223416728 -0.001899927123346184 0 -0.0001032141646286172 0.004673030894112547 -0.0003757891589430559 
0 -0.0004052213143818815 -0.0004514575861634757 0 -0.0001079754622860047 -0.001612690582574844 -0.0003931244156743888 
-0.001706669301985792 -0.001771705679255935 0.001399687794915047 -0.001981792681505471 -0.008407620640483129 -0.008175327536037646 -0.002562368598054535 
-0.008260875968039883 -0.01785462743473279 -0.001550452533330718 -0.004612200584767912 -0.0007342212528568201 -0.01704849738873498 -0.01192595557786791 
0.005471434854983895 -0.005761384400265281 -0.004884136273162481 0.00131843856597552 0.008382781307753152 -0.008116414044156271 0.005385235009403881 
0 -0.001289794695697296 0.003972216593986675 0 -9.950812639154695e-05 -0.001486224878539976 -0.003771045650918976 
-0.006151441451535302 -0.0009029553088023994 -0.002049971019131748 -0.007007234379911524 -7.28946617340791e-05 0.0111332133684709 -0.006924980957305821 
-0.02129874600159697 -0.01282541560258626 -0.01631773831505895 -0.02214071224090564 -0.0108441383272285 -0.00409273029259592 -0.03350047685353539 
-0.002435304261996508 -0.004296325913375957 -0.00443475320015716 -0.002364531525212729 -0.003731410552753812 0.01498497288544553 -0.001888324795888707 
0.00507676363445217 -0.0006782955993526571 -0.001195102335375606 -0.001964985030947117 -0.0007747278267715873 -0.002905289739878796 0.008075388261792245 
0.005808142489980445 -0.0003967905672283112 -0.005633268408131721 -0.003842665404881454 -9.646345604632883e-05 0.005566855083058098 -0.0003512107194475095 
0.01062165643181274 -0.006212699639658085 0.004541458741083701 -0.006609900081905399 -0.004578018724696176 0.002056838977348758 -0.005973252349587553 
0 -0.0004052213143818815 -0.0004514575861634757 0 -0.0001079754622860047 -0.001612690582574844 -0.0003931244156743888 
0 -0.0004052213143818815 -0.0004514575861634757 0 -0.0001079754622860047 -0.001612690582574844 -0.0003931244156743888 
0.007199852183850088 -0.005798182601761092 -0.005226121580916896 -0.007520673063935349 -0.006472224982458924 -0.009541322318348375 -0.002697962101627469 
0.006907755278982137 0 0 -0.006907755278982138 0 0 0 
-0.0102927160239719 -0.00981988132757948 -0.00457306538914661 -0.004300134597599348 -0.01184050481682248 0.001592447332491237 -0.01244911079750159 
-0.004845743326527401 -0.00361849393034117 -0.00571936493475445 -0.00845495025783159 -0.007147276653126016 0.01127248489082158 -0.007126865569840616 
-0.005124646459764272 -2.764421997557479e-05 -0.006845347279675423 -0.006425979449795619 -0.009733710591495361 0.01066597189379905 -0.008112314300152178 
-0.01661129134649727 -0.009639615834657679 -0.01150152959109932 -0.001891691936449928 -0.02269602948462204 -0.01231664999136655 -0.01962055862036327 
-0.0003595796056579617 -0.00669433096048808 -0.006214608098422191 -0.005802391120950916 -0.007268292649464697 -0.006305990173631598 0 
-0.01472929775760483 0.0002258481983493944 -0.01501901806092259 0.004271212992713215 -0.01666599777234389 -0.01026556830246239 -0.003484537337884115 
-0.007073810098419267 -0.008784744954364541 -0.007580746088143868 0.009074557192546892 0.003509573709682712 -0.01312001206824943 -0.00447249593159739 
-0.002721543338510175 -0.009551585668650581 -0.005201298798569587 -0.01020355370495495 -0.008339452240148797 -0.0002341889478547407 0.002896811412343895 
0.003904606412428706 -0.00263827611411425 -0.003416309850435117 -0.004863351790980884 -0.002339937893646006 0.006063334520195786 -0.003538296417192475 
-0.01674817754193289 -0.03457123674148508 -0.02456791804312887 -0.01057261283429946 -0.01516411082331646 0.006141682846473347 -0.0167426553524491 
-0.009049377449607038 -0.01618143134672162 -0.01482582176148567 0.007476562692055539 -0.004395520579888334 -0.02010570147977626 -0.008314987494380591 
-0.004786948568335799 -0.01554638384078386 -0.01221344049065498 -0.009814738833892181 -0.001716704709974012 -0.006686311344510435 0.005382429589572191 
-0.002856082905210673 -0.00861236642730945 -0.01058543970950814 -0.01022885877762178 0.001095348388881648 -0.01084963749924807 0.002967248165536542 
-0.01758248260089333 0.004729765991793168 -0.02047237810056337 -0.02864752422332907 -0.01133925702289522 -0.02250221918532953 -0.01821294381884152 
-0.02068817677497208 0.001948936198321401 -0.01775554597304954 -0.03032416978731001 0.0002774417316223503 -0.01510031798963131 -0.01889007251472904 
-0.009806430973721207 -0.01426886788390511 -0.01364385091718399 -0.01210016099188226 0.001993030115127764 -0.007855673370660097 -0.003938392850800138 
-0.0190571877291071 -0.02480674555610892 -0.02127345314412847 -0.006855073414723164 -0.001585063826217037 -0.008532780766994753 -0.009636705481291511 
-0.01897349467194197 -0.02426651539002887 -0.02074617866756449 -0.01065942964203311 -0.001194842193558092 -0.007607959554340257 -0.009572401932676857 
-0.01263541935055843 -0.01984025598096845 -0.01780363828439311 -0.00156466746129734 -0.0008102946676699726 -0.01000118527051764 -0.007516531203445834 
0.006907755278982137 -0.004545317304142687 -0.004311056026754882 -0.003707293316867948 -0.006907755278982137 -0.0003369428232640265 -0.006907755278982137 
0.004039763090261503 0.01110172061492013 -0.006869156751007013 -0.004959121403024954 -0.01006333434884508 -0.005791546773737087 -0.009275906558682372 
0.003211016953605766 -0.004958197385014212 -0.003277819944036009 -0.00911274616892074 -0.01029331014601007 -0.001418204788308707 -0.003356058315490491 
-0.0003562547331211759 -0.001600544418096857 0.002079707550223026 -0.01320249524309475 -0.01407743710982518 -0.008226712148036027 -0.006606075805132162 
-0.0137970649554561 -0.019664883305751 -0.01174893343926204 -0.002810922547029615 -0.02421273772415798 -0.02425686068320971 -0.01893467723772697 
0.01536743694597555 -0.003896831328677548 -0.005929331931684576 -0.004270438920318702 -0.01207357904664979 -0.01411119999023465 -0.01610568449661763 
0.0110953735475952 -0.009692326272657568 -0.005280835617698744 -0.004029566541897309 1.931235119739805e-19 -0.000477970178841112 -0.008184480138640378 
0.01280302250401007 -0.005034612432184804 -0.005227253565630119 -0.003423835065037295 -0.006214608098422191 -0.002072395183050438 -0.006796973975685489 
0.01280302250401007 -0.005034612432184804 -0.005227253565630119 -0.003423835065037295 -0.006214608098422191 -0.002072395183050438 -0.006796973975685489 
0.01280302250401007 -0.005034612432184804 -0.005227253565630119 -0.003423835065037295 -0.006214608098422191 -0.002072395183050438 -0.006796973975685489 
0.01234331340186638 -0.004853838153289632 0.0009519022897279713 -0.003300897833368493 -0.009562483876336758 -0.007989447697484992 -0.006552919823419668 
0.0050936363301883 -0.006248635701406345 -0.006884991445950623 -0.005244979060212508 -0.005991464547107981 -0.00375865202508008 -0.007349169242759294 
0.01786230545657334 -0.005669093543041126 -0.00503956225738001 -0.003300897833368493 -0.007936535078315895 -0.003936019399531493 -0.006882175802994246 
0.01004801911509064 -0.005034612432184804 -0.005227253565630119 -0.005568182593318997 -0.006214608098422191 -0.002072395183050438 -0.006214608098422192 
0.007642076062455865 -0.01486079952493099 -0.006425510284514304 -0.01277397846624964 -0.01055070208653051 -0.005884128354304559 -0.003903014888403355 
0.00989691748654071 -0.003933227092865167 -0.002073230878135431 -0.003155123324843876 -0.004563722284645713 -0.003630409292907284 -0.004137563463973632 
0.008384185242469516 -0.004381601497485764 -0.002271522348611825 -0.002907701471634974 -0.005108536908206195 -0.006726094648396835 0.002043644718188171 
0.002889110136919602 0.00301314752892159 -0.004223787611921671 -0.002368789897441489 -0.004827463248927899 -0.006449592503018447 -0.005674760545120944 
0.003620211099870562 -0.002267796177617321 -0.001839965761792481 -0.002516888455685578 -0.00358368151417839 -0.003360022604010664 -0.003239088055399461 
0.01108421286475387 -0.003942781884030929 -0.002149961315032096 -0.00338021269324698 -0.005000781768341222 -0.004364735239092792 -0.005348449505892354 
0.003620211099870562 -0.002267796177617321 -0.001839965761792481 -0.002516888455685578 -0.00358368151417839 -0.003360022604010664 -0.003239088055399461 
0.003407190914880268 -0.00213435468817114 -0.001731698636992257 -0.002583408916744923 -0.005775102867251291 0.003338977259922457 -0.003048493883477907 
-0.004127614545085804 -0.01253989586770216 -0.01017199623252648 -0.01096442848435723 0.0136760532177322 -0.011648008476023 -0.01126019922999095 
0.003620211099870562 -0.002267796177617321 -0.001839965761792481 -0.002516888455685578 -0.00358368151417839 -0.003360022604010664 -0.003239088055399461 
0.0009658617019268455 -0.005981506026696876 -0.006413903620657006 -0.007169260026512867 -0.007686976122836794 -0.007141622367183015 -0.002445589587814477 
0.003620211099870562 -0.002267796177617321 -0.001839965761792481 -0.002516888455685578 -0.00358368151417839 -0.003360022604010664 -0.003239088055399461 
0.003620211099870562 -0.002267796177617321 -0.001839965761792481 -0.002516888455685578 -0.00358368151417839 -0.003360022604010664 -0.003239088055399461 
0.003620211099870562 -0.002267796177617321 -0.001839965761792481 -0.002516888455685578 -0.00358368151417839 -0.003360022604010664 -0.003239088055399461 
0.01757003229563813 -0.004152977594519 -0.005348232169692246 -0.01460570180612457 -0.009336540188578836 -0.006186066635953633 -0.01066550490013156 
0.01757003229563813 -0.004152977594519 -0.005348232169692246 -0.01460570180612457 -0.009336540188578836 -0.006186066635953633 -0.01066550490013156 
0.01757003229563813 -0.004152977594519 -0.005348232169692246 -0.01460570180612457 -0.009336540188578836 -0.006186066635953633 -0.01066550490013156 
0.001733206959203222 -0.01247965070720306 -0.01569590136280093 0.008157291825348998 -0.009866528227416406 -0.01478799599880921 -0.02381546977896491 
0.002556937097094195 -0.01128734602614008 -0.01239925760850961 0.03530553811065949 -0.01523506779619775 -0.0100080180532598 -0.01042902250572454 
-0.0002456728084988709 -0.0053984187916536 -0.007642156130118853 0.004323419408056698 -0.01213938314048295 0.005334719830408385 0.002713797312358951 
-0.002282702623758968 -0.01171569066252782 -0.01541369091987956 -0.006314743371094843 -0.0159917015052203 -0.003119879509114305 -0.007475075002729423 
0.01757003229563813 -0.004152977594519 -0.005348232169692246 -0.01460570180612457 -0.009336540188578836 -0.006186066635953633 -0.01066550490013156 
0.01501452252243247 -0.004674397593218974 -0.009213674220801967 -0.01717383047878046 -0.002787063717253239 -0.006513136756298725 -0.01040732398329208 
0.0187860999691498 -0.02780271625526518 -0.03693241152917396 -0.03880709662206491 -0.0243237446264787 -0.04783769101839919 -0.004953397445823352 
0.01757003229563813 -0.004152977594519 -0.005348232169692246 -0.01460570180612457 -0.009336540188578836 -0.006186066635953633 -0.01066550490013156 
0.003179164786376881 -0.01643651619591477 -0.01558687770368593 -0.01821252351431708 -0.001531930937652014 -0.01879357536422158 -0.01139577266602862 
0.003179164786376881 -0.01786261557607818 -0.01558687770368593 -0.01800164090729087 -0.001531930937652014 -0.01879357536422158 -0.01139577266602862 
0.003179164786376881 -0.01786261557607818 -0.01558687770368593 -0.01800164090729087 -0.001531930937652014 -0.01879357536422158 -0.01139577266602862 
0.00870718647345165 -0.01230787179049826 -0.003648316080620917 -0.005691351527256324 -0.009264884206352556 -0.008968685665360725 -0.008936797895058586 
-0.0008667444403298135 -0.01604188825773611 -0.01112872767532 -0.002183614261288601 -0.01744262381912462 0.00187581075377717 -0.01421225354447075 
0.0005860068469838784 -0.01560662868295939 -0.01333240927858276 0.0008858312945463509 -0.0129122444247239 -0.00564353524098624 0.0003071622455982683 
0.01649256576028396 -0.006570024786431672 -0.006452017573002833 -0.01178528873600018 -0.009135757809116232 -0.001742102678915566 -0.01075318646497447 
-0.006682040507118042 -0.01661331781727735 -0.01396837769074435 -0.03461316391527977 -0.02048533246256107 -0.01622959860443692 0.003736087238787904 
0.001041816120134558 -0.001312630429947013 -0.006139339949958764 4.217522442383659e-06 -0.005102453345475649 -0.007397532229456424 -0.006606468771618849 
-0.004011810973481488 0.001220716891799987 -0.01352029963153293 0.00648185148485216 -0.01078053123532176 -0.004647568789687102 -0.004462468801644185 
0.008403632909418753 -0.01159879614075231 -0.008161373898605308 0.008846246076013607 -0.01002265486249716 -0.01485679961061642 -0.002232013517111323 
-0.003185087043452622 -0.008969543750969981 -0.01051899482819739 -0.007496316903698677 -0.009565969173214967 -0.01347713044160307 0.01284133910666066 
3.81870662658568e-05 0.01577028028949252 0.002546180513367965 -0.009974833617718419 -0.00749039103267125 -0.007756200029255473 -0.005756309420743971 
0.005808142489980444 0.0001011366809755804 -0.002218881624270959 -0.004036582783172233 -0.00209007522713837 -0.003888127891568947 -0.002045014371368563 
-0.008422050963200612 -0.0179765648080202 -0.01307747850685229 -0.00687363578674834 -0.000832251100255511 0.02081504906249694 -0.02379262295828727 
-0.0006199705602601157 -0.004660219570193283 -0.004432247402901301 -0.0110939638089599 -0.01745533561891595 0.0001229622016373161 -0.005160673478356055 
-0.004023806171043082 0.001251052295049776 -0.005468535731560154 0.003160065416330014 -0.006333954431054405 0.008020519361723431 -0.00750615183499932 
-0.001724986819213436 -0.004318185499974305 -0.01231252613152216 -0.002672746748342978 -0.01096339356753187 -0.001876170318903976 -0.01286132984780175 
-0.01513485686680895 -0.02036189357582971 -0.03575905289890537 -0.03878855633277024 -0.03612564923550707 -0.02531536127104984 -0.01326665217979235 
0.0150258567317628 -0.005308241895750737 -0.005656396454481347 -0.004101005591859084 -0.003864316245225628 -0.01611396314585017 -0.01004435120468175 
0.008891679379944239 -0.01108403865596176 -0.007768621601383239 -0.01022464558527782 -0.002977137121082963 0.001372983040195631 -0.005881093356798445 
0.02912915133329184 -0.01818380282463055 -0.01618142375726656 -0.01663747594209705 -0.01732927627681417 -0.01484237729776879 -0.01788687161309248 
0.01964330712189499 -0.01551226235078186 -0.01338986235901432 -0.01274555864328262 -0.01341382464303378 -0.01022576464864185 -0.01124014140666005 
0.006907755278982137 -0.005212280780959166 -0.003438332916386398 -0.004800799236177191 -0.002485773757899573 -0.00462423847463727 -0.002432181862580837 
0.006907755278982137 -0.005212280780959166 -0.003438332916386398 -0.004800799236177191 -0.002485773757899573 -0.00462423847463727 -0.002432181862580837 
0.006907755278982137 -0.005212280780959166 -0.003438332916386398 -0.004800799236177191 -0.002485773757899573 -0.00462423847463727 -0.002432181862580837 
0.006907755278982137 -0.005212280780959166 -0.003438332916386398 -0.004800799236177191 -0.002485773757899573 -0.00462423847463727 -0.002432181862580837 
0.01687743684490347 -0.005531532307921781 -0.003093319135416023 -0.004319071045093836 -0.00223634293671219 -0.004270524031510388 -0.008676960454634621 
0.02626204975986266 -0.01019812624199877 -0.007660365216572174 -0.008276940634381178 -0.005794762069735278 -0.0110194622871015 -0.01432439048304166 
0.006907755278982137 -0.005212280780959166 -0.003438332916386398 -0.004800799236177191 -0.002485773757899573 -0.00462423847463727 -0.002432181862580837 
0.006907755278982137 -0.005212280780959166 -0.003438332916386398 -0.004800799236177191 -0.002485773757899573 -0.00462423847463727 -0.002432181862580837 
-0.03036541899098631 -0.02420412594521032 -0.02558127435904026 -0.04162947133371597 -0.02681011463359277 -0.02999405969700441 -0.01367448758958602 
0.002124115462128346 0.001094410936759338 -0.006766937972298759 -0.01350317456739448 -0.001836536822976514 -0.007215861668700415 0.002698572198262912 
-0.006944138449014579 -0.02379683886080881 -0.01416309802180239 -0.0006590159642669374 -0.005932314146963504 -0.01064210492689037 -0.01148152642976552 
0.001933788905779713 0.0008364373729324138 -0.005157276682275906 -0.008167770996931046 -0.008438084686487896 -0.009052956359108806 -0.01075262184806041 
-0.01243454489381616 0.01206646374707769 -0.021334738109816 0.01817193413431227 0.0008978491625621133 -0.02041421146769724 -0.01650861290886144 
-0.007004457474535015 -0.008672802662235735 -0.01016130189551312 0.004651743899041607 -0.0108215771611308 -0.003801959835210722 -0.002866010626369723 
0.004338357061420734 -0.009591279816624856 -0.01128571169339188 -0.01406701432211053 0.001119467970185939 -0.01520788282830628 -0.01292186954456549 
-0.0006037520442896269 -0.01237506238059854 -0.003216944821181561 0.01110953358349898 -0.002216111161344055 -0.01355130562174078 -0.01914258057160388 
-0.0101608877515993 -0.02560563006217694 -0.03170864732986715 -0.003103464168017733 -0.02084900520315106 -0.0183656509077176 -0.02016185039594178 
-0.01397751522478049 -0.02595031663444004 -0.02157557637681011 0.00810860736589529 -0.01961940299456512 -0.01370921579482299 -0.01534402799923627 
0.0001261700806246806 -0.002350518588227234 -0.005779880210887345 0.005564530367824906 -0.006834671604384704 -0.006643724435365811 -0.008382637471037286 
-0.002885219494718356 -0.005551715049070358 -0.008517295314002781 0.01366521939374375 0.007147133961566855 -0.008802598258530688 -0.007671927851519439 
-0.002283237894185521 -0.006917397757698156 -0.009330789980520495 0.01607864498119409 -0.003847241670582215 -0.005642110885261926 -0.00611102572414756 
-0.0144671913574115 -0.02311356445061173 -0.004985071960764668 0.005585561291877119 -0.01884835616805584 -0.0269520582133561 -0.02160797542739389 
0.006907755278982137 -0.00319381352601775 -0.006907755278982138 -0.006907755278982137 -0.006907755278982137 -0.006907755278982137 -0.006907755278982138 
0.00286859864016935 -0.02022845157469818 -0.007683531872038899 -0.0003187177647538037 -2.083250179860194e-05 -0.009539992706938753 -0.0108582053816047 
0.003135671958274232 -0.01201960547931933 -0.008769025649052766 -0.0005192956745244274 0.003720183494371336 0.002534775737192195 0.002025057635961522 
0.01408041851316119 -0.004879158125527693 -0.008901430040585946 -0.009093270677768836 0.002766472145821083 -0.01033761486792343 -0.005402677381872278 
0.001202040448550822 -0.01304852630085799 0.0003003165547548937 0.003451666541736704 -0.008554027398017073 -0.01537735404749799 -0.01171310238078353 
0.006907755278982137 -0.001066626145745462 0 0 -0.0005171056085121171 -0.00176502448526057 0 
-0.006241905744873159 -0.002398421592005622 -0.02307404003773749 -0.005371389959873799 0.00304174589882147 -0.01033113801303963 -0.01573722781497812 
-0.005971768516500756 -0.01472919813527401 0.003294701810245982 -0.0090216071092477 -0.01136157412869141 0.01240846956878722 -0.008088993665184729 
0.01287343959102595 0.003217579250089476 -0.002913275461405541 -0.002129730634357568 -0.006477009542420339 -0.007060054819266953 0.002633710176678301 
0.006907755278982137 -0.001066626145745462 0 0 -0.0005171056085121171 -0.00176502448526057 0 
0.006907755278982137 -0.001066626145745462 0 0 -0.0005171056085121171 -0.00176502448526057 0 
-0.0006276445168192234 -0.006174488555413008 -0.004250226318865418 -0.008791806485504235 -0.001049386316527903 -0.001118828620886748 0.001549420322305029 
0.006907755278982137 -0.001066626145745462 0 0 -0.0005171056085121171 -0.00176502448526057 0 
0.006907755278982137 -0.001066626145745462 0 0 -0.0005171056085121171 -0.00176502448526057 0 
0.006907755278982137 -0.001066626145745462 0 0 -0.0005171056085121171 -0.00176502448526057 0 
-0.02040443734047024 -0.03407251572286728 -0.01040135301358303 -0.008193999150436143 -0.0151003669338553 -0.04520100608194411 -0.01570721770034451 
-7.993610237514313e-05 -0.006019276912588934 0.0002987178363227133 0.01108779787917452 0.0001473831284066139 -0.01547680462949047 1.085115568866239e-05 
0.007024878270781052 -0.002894761850203346 -0.01044851083553392 -0.01280651373798205 -0.01864058765419841 -0.02456505033942807 -0.01646166387924806 
0.003932868509558657 -0.009225536696489017 -0.005604568572665676 -0.0173440364779828 -0.01975438560825993 -0.01625931159666288 -0.01504550865893068 
0.004749522842674064 -0.009198156262315061 -0.01075631780188616 -0.01603265831647947 -0.01809857553571156 -0.01487443413459396 -0.0185669436767282 
0.005016590513011995 -0.002003959769859131 -0.0104486896349884 -0.009744915779370719 -0.008959480999610862 -0.00943865081895655 -0.008383286852452633 
-0.0007072748281578628 -0.005172006201535893 -0.001021044442740281 0.01313594846988813 -0.002023833159400251 -0.001193434455854232 -0.003225396541423211 
0.02589318727847999 -0.006722695981378212 -0.003062771476624522 -0.007565669728331652 -0.006731560783682531 -0.00626497871235272 -0.01093765661611916 
-0.004064329587426268 -0.005392669520307268 -0.00522108143747073 0.0008751774992384099 -0.01491203399487285 -0.01584569482682902 -0.0149603170772629 
0.02517210783890295 -0.007757750296268529 -0.002977478711536756 -0.007354979216226782 -0.009586981544906089 -0.001200161014839776 -0.006045653748038947 
0.02062772857399829 -0.0056792492713371 -0.006400575159960703 -0.01099992424711813 0.007533793289728813 -0.007332008095414121 -0.01311309039774061 
0.006907755278982137 -0.001066626145745462 0 0 -0.0005171056085121171 -0.00176502448526057 0 
0.01032382465951985 0.003972509280228614 -0.006852647047882233 -0.007668393562282369 -0.002171171754634564 -0.009174190093247792 -0.001641180415759837 
0.0026180180153061 -0.002591631739061166 -0.004036554284169796 -0.003304414464620084 0.01363004986489967 -0.005732272637141763 -0.005645931446872461 
-0.01815407406236585 0.002217618159685885 -0.01849337146178098 -0.01378870209466773 -0.01318475427920719 -0.003735092912216334 -0.01136784337701995 
-0.008540249493058198 -0.01966118884801647 -0.0166011028507161 -0.02001949166041024 0.004995345214660893 0.004433118592562853 -0.007673856001242762 
-0.01297881710913467 -0.01875300079628588 -0.0136335446234972 -0.01412520927727152 -0.01736734803759968 -8.662087491359365e-05 -0.01232076313562846 
-0.00868427515265663 -0.004273152281945271 -0.016698220875848 -0.02512856956876519 -0.01316092254672403 0.006283504733863085 -0.007889588724406166 
-0.006499073702826527 -0.01020141614503033 -0.006993442721686795 -0.02031463879655187 -0.02030072696474747 -0.005313557748395409 -0.01199189707154122 
-0.01126546226246617 -0.01330770530227362 -0.01810018800028225 -0.004467113248241255 -0.01399553903366316 0.002738484068685816 -0.01427900325909461 
-0.009570027252106046 -0.01051206010283288 -0.0181459660847693 -0.01989829013600901 -0.01332922366195667 0.01338547188375201 -0.0134051617785184 
-0.01474650846609694 0.000162006004599088 -0.0009936168121308072 -0.009161117010368702 -0.02566423362651395 -0.02166818248849723 -0.01941039197158457 
-0.0168673245274586 0.001735979304503234 0.000447353443952034 -0.006885125153149399 -0.02193797726048496 -0.0199537328669061 -0.02218298069382434 
-0.01707752118778065 -0.01648877725305338 -0.02194131640503567 -0.006405949098001671 -0.01425827479134706 -0.0111496266182457 -0.01357182087713177 
0.006214608098422191 0.001628124860054542 -0.000928483296642659 -0.0008644442813352042 -0.001089396809074345 -1.01643953670516e-20 -0.002963196672223838 
0.006907755278982137 -0.0004192731910499279 -0.001032041810562187 -0.0009608601947555196 -0.001210902834033923 0 -0.003293697226123293 
0.006907755278982137 -0.0004192731910499279 -0.001032041810562187 -0.0009608601947555196 -0.001210902834033923 0 -0.003293697226123293 
0.006907755278982137 -0.0004192731910499279 -0.001032041810562187 -0.0009608601947555196 -0.001210902834033923 0 -0.003293697226123293 
0.003693598232054007 -0.00482661948116246 -0.008916718993653866 -0.001483251332289016 0.005970183242399005 -0.01166469903287997 -0.007613719359355228 
-0.004220168817789272 0.001128138733400793 -0.01337015837452093 -0.001494566567105702 -0.009634339550655248 0.005123268579179581 -0.00268523170339156 
0.006907755278982137 -0.0004192731910499279 -0.001032041810562187 -0.0009608601947555196 -0.001210902834033923 0 -0.003293697226123293 
0.006907755278982137 -0.0004192731910499279 -0.001032041810562187 -0.0009608601947555196 -0.001210902834033923 0 -0.003293697226123293 
0.001451157556572272 -0.006795851824126204 -0.004491220339337613 -0.01056174062131835 0.005016646322856936 -0.002166294420528883 0.001265339941812187 
0.003313586209790709 -0.002560576087308516 -0.01712307694723874 -0.01743751683455794 0.008641106412428547 -0.01739144921904991 0.009508215792330266 
-0.0003174515137261932 -0.002245147311056582 -0.0004908659437890573 -0.0001648337904160193 -0.01352392988163359 -0.002917247441383643 -0.01049419074541991 
-0.01427729478252101 -0.01696711201483446 0.002387549676538698 -0.006294225763748084 -0.01961547378085757 0.001241078710027674 -0.01659472807233696 
0.005619183936062286 -0.001821787034083913 -0.003838066656398233 0.008921188731596065 -0.003658540641322778 -0.003268218931006152 -0.005933519328589291 
0.0007972937301915941 -0.005047171340536486 -0.006387483642203913 0.003344433390981299 -0.007005428911492262 -0.0008290256795675149 -0.005545438293405715 
0.005167118579623469 -0.00201684873573554 -0.003587038421950278 0.01714775936055041 -0.003419254281791648 -0.00570555406599426 -0.00564950262173343 
0.001936570954092667 -0.0002939935673208204 -0.005645436302238639 -0.005067299929869803 -0.007157305852609625 -0.001250531640527954 0.000521053876521994 
0.006214608098422191 -0.002929879505873517 -0.000928483296642659 -0.0008644442813352042 -0.001686345469674634 0.005847023866643207 -0.002963196672223839 
0.006907755278982137 -0.0004192731910499279 -0.001032041810562187 -0.0009608601947555196 -0.001210902834033923 0 -0.003293697226123293 
0.006907755278982137 -0.0004192731910499279 -0.001032041810562187 -0.0009608601947555196 -0.001210902834033923 0 -0.003293697226123293 
-0.002320396239429597 -0.004511303308254454 0.02691542796559691 -0.01295547724691778 -0.007829227188341467 -0.02003516766141998 -0.01368709669203643 
-0.001313030514214174 -0.007085499970742401 0.01481936081187634 -0.01122445450060578 -0.01579819068215578 -0.01707646858734629 -0.01767557967821562 
0.001112460509789956 0.01259895913014046 -0.002748138363019657 -0.003604064820885424 -0.006271852783865852 -0.005072749966735425 -0.009189363790413931 
-0.009794941011495395 -0.001914872104777772 -0.01745375128220492 -0.02344402680026116 -0.0174807363213167 -0.01886421736393857 -0.01287390829499244 
-0.002021144733983585 -0.01688857646635268 -0.01547822877249929 -0.01558330414396569 -0.01019139354368224 -0.01490281157294387 -0.01100645965516804 
-0.02169596479325023 -0.02691696489943241 -0.02240780095409995 -0.02911864197656217 -0.01372518578415043 -0.03218230488846219 -0.02206347255764535 
0.00264012596742046 -0.01666811920219251 -0.0152761816682908 -0.01537988542451357 -0.01065318578573261 -0.01470827575317178 -0.01086278537992632 
0.03469637471407108 -0.02965980953306073 -0.02473490349677255 -0.02395805577291416 -0.01416465957673457 -0.02039694110023056 -0.02149749795657981 
-0.006125079546275207 -0.01889935401848606 -0.01682210689016583 -0.01913838266769749 -0.01225832892792316 -0.009199173406988474 -0.01033983555683738 
-0.02627535940179606 -0.0454980740015332 -0.0458620188361209 -0.04268147819842339 -0.03418379522834956 -0.04009792596157979 0.0165402396062952 
-0.01325187918694761 -0.03463375605135045 -0.03124356784248328 -0.02617849982708809 -0.02042579677468156 -0.01674191643536684 -0.0183626281160937 
-0.005052559679697207 -0.008011903787303064 -0.007141182081352203 -0.003257321092309434 -0.01190906919541255 8.434179059278537e-05 0.005756958102960162 
0.01286354917497429 -0.001760688647881521 -0.0003251449038653481 -0.001273147509979737 -0.0034605517379498 -0.002246459036480594 -0.01101449435492938 
0.03488506957845243 -0.006623369945203082 -0.009950582435418708 -0.009270230344907888 -0.01242618871875828 -0.01139614452931505 -0.02595273206563827 
0.01888548935507265 -0.005561284351483121 -0.005861125001523418 -0.005320895748442259 -0.007311024245654067 -0.006766877814354293 -0.01529179585670047 
0.01888548935507265 -0.005561284351483121 -0.005861125001523418 -0.005320895748442259 -0.007311024245654067 -0.006766877814354293 -0.01529179585670047 
0.01888548935507265 -0.005561284351483121 -0.005861125001523418 -0.005320895748442259 -0.007311024245654067 -0.006766877814354293 -0.01529179585670047 
0.01579560600009071 -0.002480215589102514 -0.001208994240099943 -0.001029465060581294 -0.002615401585367318 -0.002163244374662751 -0.01101449435492939 
0.02776640078524284 -0.0073709943793457 -0.006020350932828791 -0.004206199498769303 -0.007121867390419062 -0.008324071988020137 -0.02132649459177401 
0.01300257934108078 -0.0007438423586508891 0 0 -8.85094326707316e-05 -0.001497079553870338 -0.01152259599347999 
0.006907755278982137 -0.0007720275244905134 0 0 -9.40431101757289e-05 -0.001590678113938656 -0.005335242239220099 
0.01074888952148767 -0.004099266542706112 -0.002797854221276773 -0.002193628496827081 -0.002847870412509462 -0.003234614121742722 -0.008481792509597455 
0.006907755278982137 -0.0007720275244905134 0 0 -9.40431101757289e-05 -0.001590678113938656 -0.005335242239220099 
0.006907755278982137 -0.0007720275244905134 0 0 -9.40431101757289e-05 -0.001590678113938656 -0.005335242239220099 
0.006907755278982137 -0.0007720275244905134 0 0 -9.40431101757289e-05 -0.001590678113938656 -0.005335242239220099 
0.006501289670540389 -0.0007265999398697029 -8.211130915650347e-05 -0.006501289670540389 0.006095670771828102 -0.002608706492423432 -0.005525829697807871 
0.005152080551451516 -0.008325070631256783 -0.007282901145609763 -0.008882677236523374 -0.01106271556904995 0.006053045906596226 -0.0214621517447291 
-0.03720127513108516 -0.04161999753115062 -0.03558209456055766 -0.03553009972329385 -0.03656658433303411 -0.03806638641220383 0.002592255867143899 
-0.03867442120539963 -0.03954578897873847 -0.03832404661457282 -0.03848816987664263 -0.03306813984281045 -0.03755228752413398 0.00510999829765003 
-0.03867442120539963 -0.03547137555126708 -0.04013681981065646 -0.04028428445427144 -0.03306813984281045 -0.03755228752413398 0.004932810137199105 
-0.03753157870077642 -0.04198953415876989 -0.03533952470337437 -0.03934207278234706 -0.03655544720704645 -0.03724349150418568 0.003383027156823087 
-0.01732355008568364 -0.02110223963133467 -0.03342189764224543 -0.04011919016752103 -0.03029605854995227 -0.02676277063800871 -0.007629135675581098 
-0.02576620443342625 -0.01261654969699138 -0.04362629065293752 -0.03301718328915729 -0.03128593756443382 -0.03684264311670765 -0.01230609526410613 
-0.01688977089529206 -0.02955931088356034 -0.04278066343703438 -0.03073113217118483 -0.01731571786672054 -0.03668663391889549 -0.00760297786055796 
0.05240218265997847 -0.01696904618670951 -0.01904118893719326 -0.02236432409782899 -0.02725164339759652 -0.02440003835724398 -0.0407093857838105 
0.0190306277806244 -0.004793853114106543 -0.008734910856156431 -0.008275491668946446 -0.008354843149768261 -0.009528749175148541 -0.01828311925022435 
0.001013056581900684 -0.002698078701751662 -0.003216187857892 -0.004375962333669204 0.0035020858537215 -0.005877364803152608 -0.004369476744580775 
0.002692260398277697 -0.002782749317134178 -0.003417266385502412 -0.003780965976009315 -0.003186716336029985 -0.003109079450056616 -0.003560304661137557 
0.01193378472105194 -0.005933959800733687 -0.005926152280589222 -0.00586677040712671 -0.006234692556719501 -0.007372075242029228 -0.005974395269322213 
0.02441437320258552 -0.01092874841328904 -0.009039676576740933 -0.01034243606115307 -0.01006651999774552 -0.01100875506112228 -0.0179249084417432 
0.002692260398277697 -0.002782749317134178 -0.003417266385502412 -0.003780965976009315 -0.003186716336029985 -0.003109079450056616 -0.003560304661137557 
-0.007764696483420539 -0.01258267751968896 -0.007831424003756089 0.00970873193227885 -0.01999717382287045 -0.0226253125670144 9.485091999569034e-05 
0.0007074675107954184 -0.006949505278284183 -0.002177646249006648 -0.008366237579660466 -0.008755473574339602 -0.004195415791890142 0.002743777473591981 
0.002692260398277697 -0.002782749317134178 -0.003417266385502412 -0.003780965976009315 -0.003186716336029985 -0.003109079450056616 -0.003560304661137557 
0.002692260398277697 -0.002782749317134178 -0.003417266385502412 -0.003780965976009315 -0.003186716336029985 -0.003109079450056616 -0.003560304661137557 
0.002692260398277697 -0.002782749317134178 -0.003417266385502412 -0.003780965976009315 -0.003186716336029985 -0.003109079450056616 -0.003560304661137557 
-0.01350083740198653 -0.0255940602281198 -0.02003362800348335 -0.0202962486683053 -0.01656674935595776 -0.019545905802499 0.03461859884379985 
0.009035132288124669 -0.007421427081598213 -0.009470510541398672 -0.008265013034362667 -0.00903521757276962 -0.008544600743374422 -0.009852099156779322 
0.009035132288124669 -0.007421427081598213 -0.009470510541398672 -0.008265013034362667 -0.00903521757276962 -0.008544600743374422 -0.009852099156779322 
0.002692260398277697 -0.002782749317134178 -0.003417266385502412 -0.003780965976009315 -0.003186716336029985 -0.003109079450056616 -0.003560304661137557 
0.002692260398277697 -0.002782749317134178 -0.003417266385502412 -0.003780965976009315 -0.003186716336029985 -0.003109079450056616 -0.003560304661137557 
0.006318822835764347 -0.007355344148428673 -0.007796611339580297 -0.008419974930190808 -0.007772915977266114 -0.008483630258504007 -0.007373770422404815 
0.0005301146271867931 0.00243570256202192 -0.004597236436476137 -0.006393031959961874 -0.004742367597675858 0.003417504039488748 -0.009417659927324852 
-0.0145618672263972 -0.03034802230467303 -0.01780688700376594 -0.01749645264792415 -0.006183412577467911 -0.01742232671829292 -0.02163000084117551 
-0.002202957957312413 -0.00490787341256536 -0.004848103948909679 -0.008385403135239474 0.001671591458437795 0.001631029845348964 -0.003088042105228166 
0.002692260398277697 -0.002782749317134178 -0.003417266385502412 -0.003780965976009315 -0.003186716336029985 -0.003109079450056616 -0.003560304661137557 
0.01206250700149305 -0.005412991402461964 -0.005740640587325397 -0.003960381912877203 -0.004857562912297589 -0.002026418051991298 -0.008453005873246407 
0.007592169414648796 -0.02082459259838594 -0.0187344343690987 -0.01852095520626748 -0.01956973367316288 -0.01660391995944628 0.008443966520286804 
-0.001780885762736019 -0.001597497252132079 -0.001652647137020418 -0.0006746870186832733 -0.002336657830652798 -0.002644676696728228 0.001313817287003876 
0.008839018016083512 -0.000194529010278735 -0.001473037673696079 -0.000217266207769895 -0.001153966368293361 -0.001380498339300361 -0.005187472383536514 
0.005015527174680282 0 -0.0004176012341289316 -0.0002308498574471569 -9.099638490693641e-05 -0.001466808152563904 -0.005511797129164047 
0.01480047045010111 -0.008013956504750367 0.008745977520461447 -0.003830284068252455 -0.003698989338214083 -0.003898591479833935 -0.01349147143553663 
0.009179530932925617 -0.002767776354989942 -0.002769574237430017 -0.002238980083471892 -0.001583800387934285 -0.001995729507813853 -0.008692290163400311 
0.009179530932925617 -0.002767776354989942 -0.002769574237430017 -0.002238980083471892 -0.001583800387934285 -0.001995729507813853 -0.008692290163400311 
0.009179530932925617 -0.002767776354989942 -0.002769574237430017 -0.002238980083471892 -0.001583800387934285 -0.001995729507813853 -0.008692290163400311 
0.005015527174680282 0 -0.0004176012341289316 -0.0002308498574471569 -9.099638490693641e-05 -0.001466808152563904 -0.005511797129164047 
0.006973748500064903 -0.003690112186981931 -0.00260684632244606 -0.002141806595976 -0.0001882025673735298 -0.001529098244571961 0.002671413760858392 
0.001018867717734025 -0.001744930253422232 -0.00270393459552977 -0.001856535205121727 -0.0001952119035583617 -0.001586047327708373 0.007470491156311336 
0.01552416708909402 -0.007619215500418359 -0.010018969494234 -0.01119386281899925 -0.008759330293422593 -0.007798390327796998 0.001395528273795348 
0.005015527174680282 0 -0.0004176012341289316 -0.0002308498574471569 -9.099638490693641e-05 -0.001466808152563904 -0.005511797129164047 
0.005015527174680282 0 -0.0004176012341289316 -0.0002308498574471569 -9.099638490693641e-05 -0.001466808152563904 -0.005511797129164047 
-0.003305113801998238 -0.006489006042488542 -0.006590305833318088 -0.006577370510367189 -0.004710191541105817 -0.006766698445582126 0.007470491156311336 
0.005015527174680282 0 -0.0004176012341289316 -0.0002308498574471569 -9.099638490693641e-05 -0.001466808152563904 -0.005511797129164047 
0.005015527174680282 0 -0.0004176012341289316 -0.0002308498574471569 -9.099638490693641e-05 -0.001466808152563904 -0.005511797129164047 
-0.004768917895993109 -0.002617247686211623 -0.002049541085259162 0.004664371838717265 -0.0007326010646138264 -0.003815738366930009 0.001731167056197865 
0.005015527174680282 0 -0.0004176012341289316 -0.0002308498574471569 -9.099638490693641e-05 -0.001466808152563904 -0.005511797129164047 
0.01675320352533253 -0.005304064423875297 -0.00255238678709209 -0.003379414537303462 -0.002767676062858241 -0.002229605893114041 -0.008336052006171754 
0.02388540961966471 -0.005522957692634749 -0.00652751179469881 -0.003392341753499537 -0.00374294493844425 -0.004005320745071473 -0.01040121911486951 
0.009179530932925617 -0.002767776354989942 -0.002769574237430017 -0.002238980083471892 -0.001583800387934285 -0.001995729507813853 -0.008692290163400311 
0.005015527174680282 0 -0.0004176012341289316 -0.0002308498574471569 -9.099638490693641e-05 -0.001466808152563904 -0.005511797129164047 
0.01017198735797961 -0.005595433522047697 -0.008708331476515554 -0.004659772748125538 -0.0064752567690701 -0.005180182666716079 -0.004967636810552358 
0.005015527174680282 0 -0.0004176012341289316 -0.0002308498574471569 -9.099638490693641e-05 -0.001466808152563904 -0.005511797129164047 
-0.003748673582549056 -0.009161679440735683 -0.001768728279821736 -0.007723192761153356 -0.006070196836975079 0.003303897625367737 -0.003485915576252161 
0.003800229980684102 -0.0003787736793648532 -0.0003756977348958964 0.007120164520219867 -0.001616156717640724 -0.002842667429966273 -0.004958725040533048 
-0.006108542935801594 -0.00281380521155823 -0.007020856407397384 0.004531521452855583 -0.008361220678535808 0.01453295014133798 -0.01405392502121399 
0.005015527174680282 0 -0.0004176012341289316 -0.0002308498574471569 -9.099638490693641e-05 -0.001466808152563904 -0.005511797129164047 
0.01250858023973253 -0.0009868961737570701 -0.0003756977348958964 -0.0002076856135850408 -8.186550445561231e-05 -0.002874381073222044 -0.004958725040533048 
0.005015527174680282 0 -0.0004176012341289316 -0.0002308498574471569 -9.099638490693641e-05 -0.001466808152563904 -0.005511797129164047 
0.005015527174680282 0 -0.0004176012341289316 -0.0002308498574471569 -9.099638490693641e-05 -0.001466808152563904 -0.005511797129164047 
0.005015527174680282 0 -0.0004176012341289316 -0.0002308498574471569 -9.099638490693641e-05 -0.001466808152563904 -0.005511797129164047 
0.005015527174680282 0 -0.0004176012341289316 -0.0002308498574471569 -9.099638490693641e-05 -0.001466808152563904 -0.005511797129164047 
0.005015527174680282 0 -0.0004176012341289316 -0.0002308498574471569 -9.099638490693641e-05 -0.001466808152563904 -0.005511797129164047 
0.001484110785302586 -0.004112626568524761 0.005113209404687053 -0.002918256165731338 -0.006006046216979069 0.00152491796269834 -0.005750674396790494 
-0.01528888003120923 -0.01698457908079233 -0.008184026594793802 -0.008496617826563989 -0.01230339049281352 0.005302261921007992 -0.01376340177902158 
0.005015527174680282 0 -0.0004176012341289316 -0.0002308498574471569 -9.099638490693641e-05 -0.001466808152563904 -0.005511797129164047 
0.008449251722125828 -0.0003612874966169247 -0.001408082445197635 -0.0002076856135850408 -0.00110308094257038 -0.001319623735295169 -0.004958725040533049 
-0.005463303906617022 -0.006322989132965307 -0.007597426054495293 -0.005664651014162322 -0.007946220138348165 0.00110266312523439 0.01568786055650842 
-0.005167857327922745 -0.006121294683923546 -0.006398477456259044 -0.004963983431208476 -0.006376946171761381 -0.004896415715758743 0.007470491156311336 
-0.005167857327922745 -0.006121294683923546 -0.006398477456259044 -0.004963983431208476 -0.006376946171761381 -0.004896415715758743 0.007470491156311336 
-0.005167857327922745 -0.006121294683923546 -0.006398477456259044 -0.004963983431208476 -0.006376946171761381 -0.004896415715758743 0.007470491156311336 
-0.005167857327922745 -0.006121294683923546 -0.006398477456259044 -0.004963983431208476 -0.006376946171761381 -0.004896415715758743 0.007470491156311336 
0.00589776277192356 -0.01103981019648597 -0.01278220333578477 -0.005548686800878021 -0.006108994902063415 -0.01027408443395071 0.00495129077579759 
-0.005167857327922745 -0.006121294683923546 -0.006398477456259044 -0.004963983431208476 -0.006376946171761381 -0.004896415715758743 0.007470491156311336 
-0.03584491193518798 -0.01987001907874129 -0.008460924802264742 -0.02943709453466279 -0.03147426991873085 -0.02352288629928862 -0.01569675478992079 
0.006907755278982137 -0.00118487770717073 -0.0004275074356721543 1.084202172485504e-19 0 -0.0006398967547375299 -0.006907755278982138 
0.006228684945386552 -0.006804405136601442 0.005620800094523816 -0.0006048137316405412 -0.00106546973434067 -0.002548788784184732 -0.009588125842463865 
0.008581873985632059 -0.001115157223638317 -0.0004023520757996698 -1.084202172485504e-19 0 -0.0006022439987770418 -0.009806844831100144 
0.01323396398741772 -0.003531724714934851 -0.002243048148641551 -0.002170837911529876 -0.00289161907558118 -0.002422773827360909 -0.01090554314013507 
0.01323396398741772 -0.003531724714934851 -0.002243048148641551 -0.002170837911529876 -0.00289161907558118 -0.002422773827360909 -0.01090554314013507 
0.006907755278982137 -0.00118487770717073 -0.0004275074356721543 1.084202172485504e-19 0 -0.0006398967547375299 -0.006907755278982138 
0.001873880267175351 -0.007288007311317002 -0.004176908636441632 -0.003004543781396138 -0.006559972461825284 -0.006916047883221298 -0.0006468407960979125 
0.006767316826161228 -0.004877136560695345 -0.00332334885597325 -0.002514441459167108 -0.00486228501525795 -0.003500823655521917 -0.004522500944563963 
0.01203693572728031 -0.000620152654733388 -0.004135573750148155 -0.003130463691465455 -0.005166006915389571 -0.004274601139743265 -0.01259761347288808 
0.01050963942965009 -0.0006372298768486921 -0.004249455567740093 -0.003216667666204605 -0.005308263901423496 -0.004392311372152279 -0.009991388345888856 
0.006907755278982137 -0.00118487770717073 -0.0004275074356721543 1.084202172485504e-19 0 -0.0006398967547375299 -0.006907755278982138 
0.006907755278982137 -0.001159836150657416 0 -0.0005961618120129945 -0.001872022514944944 -0.0008362149883361931 -0.006907755278982137 
-4.336808689942018e-19 -0.005392639330649455 -0.004328874084940297 -0.003025018667480749 -0.003389690151462612 -0.003770594101552212 0 
0.006394256048304668 -0.0147911063203337 -0.01297630361928672 -0.003794912062572335 -0.003245059319097161 -0.008512798635769299 -0.007685161361569449 
0.006907755278982137 -0.001159836150657416 0 -0.0005961618120129945 -0.001872022514944944 -0.0008362149883361931 -0.006907755278982137 
0.01241816298562265 -0.002763003459530236 -0.0003264719985172151 -0.002508816916491822 0.001447232002603715 -0.001199762021797311 -0.00725565394896517 
0.006501289670540389 -0.001091589160480432 0 -0.001838215899948812 0.002704904695264832 -0.0007870104898710618 -0.006501289670540389 
0.00616094849939905 -0.003212153331371393 -0.001267670414029807 0.003701110853022163 -0.004600548372681305 -0.004867022726279289 -0.009135709497630814 
0.005761666061246363 0.0002973145394541417 -0.001719102635613403 -0.0008569469531187375 -0.004404680196487127 -0.004072337004789933 0.004186889690769982 
0.006907755278982137 -0.001159836150657416 0 -0.0005961618120129945 -0.001872022514944944 -0.0008362149883361931 -0.006907755278982137 
0.006907755278982137 -0.001159836150657416 0 -0.0005961618120129945 -0.001872022514944944 -0.0008362149883361931 -0.006907755278982137 
0.009494778912513968 -0.002751745746372115 -0.002435827865891457 -0.002786493227121671 -0.003263837288993432 -0.003441850094118518 -0.008604855572337701 
0.006907755278982137 -0.001159836150657416 0 -0.0005961618120129945 -0.001872022514944944 -0.0008362149883361931 -0.006907755278982137 
0.006907755278982137 -0.001182991838155526 -0.0001879020258045026 0 -0.001197415240783322 -0.0005645383555327362 -0.006288561665136008 
-0.001936930757561631 -0.009924703808128229 -0.002611591748285507 -0.00403820947141235 -0.007417914102494506 -0.01390014692859839 -0.01771682361639628 
0.006907755278982137 -0.001182991838155526 -0.0001879020258045026 0 -0.001197415240783322 -0.0005645383555327362 -0.006288561665136008 
-1.168225494613089e-05 -0.00857898829600059 -0.003213531411211885 -0.002720995558179702 0.008524781379203133 -0.0026505434107012 -0.008223263634252581 
0.006907755278982137 -0.001182991838155526 -0.0001879020258045026 0 -0.001197415240783322 -0.0005645383555327362 -0.006288561665136008 
0.01300257934108078 -0.002214573584390547 -0.0001768455091559686 0 -0.003268242143528214 -0.0005313198327416206 -0.01092366452618021 
0.006341474091958372 0.005030583901024 -0.007825444281024167 -0.00827704337581823 -0.007719882373573325 -0.007408090304955716 -0.01339653247774059 
0.006907755278982137 -0.001182991838155526 -0.0001879020258045026 0 -0.001197415240783322 -0.0005645383555327362 -0.006288561665136008 
0.001486899562957653 -0.001113382322783644 -0.0001768455091559686 0 -0.004088679578569363 -0.0005313198327416206 0.0005827590705204588 
0.006907755278982137 -0.001182991838155526 -0.0001879020258045026 0 -0.001197415240783322 -0.0005645383555327362 -0.006288561665136008 
0.00485760558586631 -0.001710685619746016 -0.001757760761761849 0 -0.004527950326563304 0.002918060586173804 -0.001363781674780279 
0.01121800632824361 -0.01169894045039787 -0.005558277021536404 -0.01084672123933728 -0.01427003994799675 0.005994554946475322 -0.01084501659671887 
0.006907755278982137 -0.001182991838155526 -0.0001879020258045026 0 -0.001197415240783322 -0.0005645383555327362 -0.006288561665136008 
0.006907755278982137 -0.001182991838155526 -0.0001879020258045026 0 -0.001197415240783322 -0.0005645383555327362 -0.006288561665136008 
0.00145313283219366 -0.003103391784162333 -0.001029598115727037 -0.004450204090428483 0.00537433264588457 -0.003254130594199644 -0.01241982027056032 
0.006907755278982137 -0.0008391327593197781 -0.0002488410737506016 -0.004722941400589472 0 0 -0.001757939903751944 
0.001705240070943673 -0.003909203239370093 -0.001560004040363719 2.243889400781974e-05 0.004160882851526552 -0.005782639676808287 -0.003851722156124761 
0.005593121084595861 -0.001550288275306508 -0.0004151974963195893 -0.005025248820196693 0.00771492852678757 -0.00247450594275991 -0.002260834907050335 
0.006907755278982137 -0.0008391327593197781 -0.0002488410737506016 -0.004722941400589472 0 0 -0.001757939903751944 
0.006907755278982137 -0.0008391327593197781 -0.0002488410737506016 -0.004722941400589472 0 0 -0.001757939903751944 
0.0001224689303831993 -0.00238867728419076 -0.001211215108329283 -0.005380830843072765 -0.002134041504120229 -0.001762419786677227 0.004846790332315811 
0.009785773013147087 -0.009400779979862477 -0.007486376226804144 -0.004552309199605767 -0.01038938536648849 -0.005692619542549363 -0.0007401505304790156 
0.005158335234548572 -0.00292516837702866 0.008707034502653204 -0.005444987425852707 -0.00304673445218073 -0.003451367027991945 -0.003056338896412404 
0.001394808896295674 -0.004960400627790775 -0.006879946213283935 -0.009929644268980199 0.00139945935846754 0.002249130433522333 -0.007189154380785041 
0.006907755278982137 -0.0008391327593197781 -0.0002488410737506016 -0.004722941400589472 0 0 -0.001757939903751944 
0.00265470898026087 0.001323229050696653 -0.002778811752808111 -0.009827051323123899 0.003867384077632052 -0.002969194475523112 0.006086530658282831 
0.001736352084578802 -0.003694845166662785 -0.003147948859584381 -0.008388983945472557 -0.003409559029924312 -0.006078483231158729 -0.004063844541242542 
-0.007674546006057217 0.004140890498747165 -0.01094228472477067 -0.01577683571972142 -0.00781751876677669 -0.008650933730333928 0.004697793842723041 
-0.002766547751966649 -0.003812090993619841 -0.00205191200264317 -0.009903820847216761 0.00456391317840971 -0.007594864975821248 0.002794473585203245 
-0.008308743086151498 -0.01009777783042718 -0.007158412482563254 -0.004553208208801643 -0.005483778938025522 -0.008102576035610277 -0.002326305205957778 
0.006907755278982137 -0.0008391327593197781 -0.0002488410737506016 -0.004722941400589472 0 0 -0.001757939903751944 
0.006907755278982137 -0.0008391327593197781 -0.0002488410737506016 -0.004722941400589472 0 0 -0.001757939903751944 
0.007814688302606671 -0.001909395414128082 -0.001021819815175246 -0.005172352523762203 -0.0009639713603839016 -0.0008094075787636364 -0.003992432859390547 
0.006907755278982137 -0.0008391327593197781 -0.0002488410737506016 -0.004722941400589472 0 0 -0.001757939903751944 
0.01900287532840303 0.0006736790488796292 -0.0009965882980957849 -0.00270173889842035 -0.002752303378395978 -0.005266319444547349 -0.003346710407905438 
0.006907755278982137 -0.0008391327593197781 -0.0002488410737506016 -0.004722941400589472 0 0 -0.001757939903751944 
0.006907755278982137 -0.0008391327593197781 -0.0002488410737506016 -0.004722941400589472 0 0 -0.001757939903751944 
0.005291727841232755 -0.002451023729334677 -0.0009332514292671072 0.0089632659524751 -0.0021610384377456 -0.002488532816132001 -0.001540070695458533 
-0.01007770672988492 0.002346938499053842 -0.01789526877941353 0.006204368332425127 -0.01095717452941039 -0.01012183879249975 -0.004946010988637979 
0.005030437921392435 0.009863205162307329 0.001338489044365758 0.001931168702529465 -0.00272901085537011 -0.00203814911269992 0.00234194497998351 
-0.00185799042667671 -0.0001528095842951115 0.004940826032570929 -0.005656956915712228 -0.009754627025766481 -0.002704747845348133 -0.01197199293226298 
0.006907755278982137 -0.0008391327593197781 -0.0002488410737506016 -0.004722941400589472 0 0 -0.001757939903751944 
0.005273471230667306 -0.002441341913561255 -0.0001946229978534049 0.01066703123847613 -0.001313139424943258 -0.0001939288284246112 -0.001374915840691281 
-0.01411444225271112 -0.01951772580696418 0.01632099760817952 0.004243790145861876 -0.02523615466917274 -0.01628644950533526 -0.02251132866333515 
0.002310811529455656 -0.004064262388985516 -0.0002746448057174393 -0.004311093655438226 -0.001022331500245032 0.0022519141090113 0.001719911906944558 
-0.02042023234652054 0.00453969296580936 -0.01725940477688663 -0.02628033827152785 -0.02048808617362042 -0.01288365947498518 0.00322242413752923 
0.001053990421400259 0.01331280470886931 0.003532757225711344 -0.01337010582521927 -0.004296566584617907 0.002920956761926287 0.005081879973172772 
0.006501289670540389 -0.0007897565735973195 -0.0002341987862979632 -0.004445034443481956 0 0 -0.001654499338224578 
-0.0002167240479479365 -0.02412579456087183 -0.01127772375282154 0.02127728027805532 -0.01787132207733059 -0.01596001595543951 -0.0217045590772785 
-0.01062542693432265 -0.01677839739793533 -0.00965097879825276 -0.00845733017652414 -0.01671425049450018 -0.01189791558908586 0.002232409917536894 
0.006907755278982137 -0.0008391327593197781 -0.0002488410737506016 -0.004722941400589472 0 0 -0.001757939903751944 
0.005808142489980444 -0.002953927555255487 -0.000380370342213494 -0.004319697045918383 0.0008574031785418351 -0.001943660982875817 0.004330040698957195 
0.002217098989948154 -0.006456896547275322 -0.003468640156247572 0.01394397916577088 -0.008664031602912009 -0.003876517991992079 -0.0003647526794925607 
0.007710003930859594 -3.479148594043399e-05 -0.006850941358754486 0.001814356178949648 -0.002682144847184044 0.003625846418267283 -0.003096625231539126 
-0.01687779058212771 -0.002278431485520331 -0.02790092679416768 0.01368860293584175 -0.01714387419843144 -0.01594532130481733 -0.01684819094041625 
0.006907755278982137 -0.0008391327593197781 -0.0002488410737506016 -0.004722941400589472 0 0 -0.001757939903751944 
-0.005509749083701803 0.0008039045271872433 -0.007940332714238361 -0.01102082310796226 -0.002792551002783551 -0.001803786230775211 0.0036394767489362 
3.66991380766066e-06 -0.006417539667129889 -0.005552735153803062 0.01741262510626451 0.004611134574023729 0.001022966940569251 0.00138700588539366 
-0.004974937912244218 -0.01118027526666811 -0.007369305696395447 0.01928583830806175 -0.01067368232074985 -0.006197542569211588 -0.01173618678680261 
-0.0283216568169874 -0.0202178500155688 -0.02793504277964735 -0.005787360325874746 -0.02184387301949013 -0.008327682361056106 -0.0229201818028909 
0.006907755278982137 -0.0008391327593197781 -0.0002488410737506016 -0.004722941400589472 0 0 -0.001757939903751944 
0.006907755278982137 -0.0008391327593197781 -0.0002488410737506016 -0.004722941400589472 0 0 -0.001757939903751944 
0.006907755278982137 -0.0008391327593197781 -0.0002488410737506016 -0.004722941400589472 0 0 -0.001757939903751944 
-0.000856451917448604 -0.01372194352764463 -0.005973239267966919 -0.007324029627856224 -0.01322432015212461 -0.01165830199476187 0.001822169332264769 
0.002242270708397012 -0.01089792913822497 -0.01195535586491551 -0.01437587075142805 -0.01121296601605468 -0.009212307464222217 -0.002296478966467971 
0.001831706943070938 -0.004039449525662823 -0.005509907887798301 -0.005358237258374001 -0.002593365684994382 -0.005008783382937195 -0.005382336804452554 
-0.0005315189655031186 -0.004237148990925321 -0.006256362742285657 -0.008029265163588147 -0.006918068721170445 0.008492740367824568 -0.007505215070044053 
0.001831706943070938 -0.004039449525662823 -0.005509907887798301 -0.005358237258374001 -0.002593365684994382 -0.005008783382937195 -0.005382336804452554 
0.001831706943070938 -0.004039449525662823 -0.005509907887798301 -0.005358237258374001 -0.002593365684994382 -0.005008783382937195 -0.005382336804452554 
0.007805568760714667 -0.007684180506787165 -0.009045435670749995 -0.008489899147214245 -0.007264632686580274 -0.00848333775671147 -0.01138060118872932 
0.04435370039182231 -0.01540359610723392 -0.00783279438247649 -0.009341321739080534 -0.01516767684458497 -0.01925206543080888 -0.01500272063462482 
0.005331098285976279 -0.01451594300445261 -0.006785740025260684 -0.01369445589224268 -0.0200153695700626 -0.01849191173209951 0.005313895452618305 
-0.008959948770216955 -0.01516377223926926 -0.00828322394056865 -0.01057152920892196 -0.0189904991879454 -0.01461360840069431 0.005561580441760992 
0.001831706943070938 -0.004039449525662823 -0.005509907887798301 -0.005358237258374001 -0.002593365684994382 -0.005008783382937195 -0.005382336804452554 
0.001930580925196238 -0.01412179050933464 -0.01417781307984451 -0.01263916828458572 -0.01392957567005558 -0.003434466222625141 0.006774957708157807 
0.001831706943070938 -0.004039449525662823 -0.005509907887798301 -0.005358237258374001 -0.002593365684994382 -0.005008783382937195 -0.005382336804452554 
0.001250325350909172 -0.003990197226333498 -0.005360088315841045 0.001394034219599827 -0.004262924354383582 -0.005463840478491131 -0.004842255196150408 
0.001831706943070938 -0.004039449525662823 -0.005509907887798301 -0.005358237258374001 -0.002593365684994382 -0.005008783382937195 -0.005382336804452554 
0.001831706943070938 -0.004039449525662823 -0.005509907887798301 -0.005358237258374001 -0.002593365684994382 -0.005008783382937195 -0.005382336804452554 
0.008225215453591422 -0.005980447039086428 -0.005185694308766891 -0.005424827585072303 -0.002440767059465408 -0.004714056933739869 -0.009982007267937259 
0.001831706943070938 -0.004039449525662823 -0.005509907887798301 -0.005358237258374001 -0.002593365684994382 -0.005008783382937195 -0.005382336804452554 
-0.003555893752662942 -0.003801760545247725 -0.005185694308766891 -0.005172316777612232 -0.003953619330633888 -0.004714056933739869 0.001435659917178183 
0.001831706943070938 -0.004039449525662823 -0.005509907887798301 -0.005358237258374001 -0.002593365684994382 -0.005008783382937195 -0.005382336804452554 
0.004536910207938683 -0.005170620524825955 -0.00346913184192624 -0.004917039294691663 -0.004146547823875493 -0.002450403273259085 -0.004078035542646574 
0.01299590301411112 -0.001708938994493034 -0.009855378901403778 -0.01005717461423408 -0.01020605804772165 -0.009523448607116741 -0.00990595057376868 
0.01640595554999478 -0.002424737843218559 -0.004328904892252188 -0.005732923932226286 -0.008732117665144647 -0.005380490313835654 -0.01358967953348812 
0.004536910207938683 -0.005170620524825955 -0.00346913184192624 -0.004917039294691663 -0.004146547823875493 -0.002450403273259085 -0.004078035542646574 
0.01840578175721298 -0.01355534842568782 -0.01151035998081439 -0.01350456693576038 -0.01259831769795196 -0.01097407486998288 -0.01594314243655674 
0.004536910207938683 -0.005170620524825955 -0.00346913184192624 -0.004917039294691663 -0.004146547823875493 -0.002450403273259085 -0.004078035542646574 
0.02086020333425952 -0.01393070589604454 -0.01120189206184053 -0.01314265595589001 -0.01250888986912671 -0.01166483127266443 -0.01551587969433965 
0.004536910207938683 -0.005170620524825955 -0.00346913184192624 -0.004917039294691663 -0.004146547823875493 -0.002450403273259085 -0.004078035542646574 
0.004536910207938683 -0.005170620524825955 -0.00346913184192624 -0.004917039294691663 -0.004146547823875493 -0.002450403273259085 -0.004078035542646574 
0.005477236959975785 -0.009516576222859273 -0.005053260436209434 0.001073586171093609 -0.005885526636615893 -0.008441615116887078 -0.009339260142391073 
0.004536910207938683 -0.005170620524825955 -0.00346913184192624 -0.004917039294691663 -0.004146547823875493 -0.002450403273259085 -0.004078035542646574 
0.004536910207938683 -0.005170620524825955 -0.00346913184192624 -0.004917039294691663 -0.004146547823875493 -0.002450403273259085 -0.004078035542646574 
0.004536910207938683 -0.005170620524825955 -0.00346913184192624 -0.004917039294691663 -0.004146547823875493 -0.002450403273259085 -0.004078035542646574 
-0.0121341572671051 -0.01278667612865212 -0.01146220822086585 -0.009252755822689645 -0.008544544710266375 -0.01102879113770635 0.01996118243285115 
-0.0006089897664335706 -0.009899049265097026 -0.007116854767783778 -0.004459020542630517 0.008268855348139561 -0.01067373950313522 -0.008994215896402157 
0.004269949684058182 -0.004866371266888368 -0.003265001451090946 -0.004627711244126542 0.002598732696962174 -0.002306216831040526 -0.003838076086767709 
0.002932935633306012 -0.004866371266888368 -0.003265001451090946 -0.004627711244126542 7.389416463078307e-05 -0.002306216831040526 -0.003838076086767709 
0.002832328203672302 -0.004771558180013609 -0.004198209082868852 -0.006568649426075482 0.0008513825932480476 0.0009974916768866326 -0.004818208001357678 
-0.005217299799034075 -0.007208846960799575 -0.01359025228707347 0.008778428025810987 -0.01032199805536484 -0.0150647835938166 -0.01234224319170785 
0.001365000610539445 0.005692764903650355 -0.003642957328045019 -0.006043673462482725 -0.003918090228336873 -0.007587939015397152 -0.006302677946642302 
0.009016545974229269 0.0012928972686648 -0.006778207002358965 -0.00857707486714317 -0.009071477274390791 -0.0119662666571336 -0.01021544732916831 
0.004536910207938683 -0.005170620524825955 -0.00346913184192624 -0.004917039294691663 -0.004146547823875493 -0.002450403273259085 -0.004078035542646574 
0.006907755278982137 0 -0.002403085911177532 -2.168404344971009e-19 -0.003278661774567023 0 -0.005268482144359946 
0.006907755278982137 0 -0.002403085911177532 -2.168404344971009e-19 -0.003278661774567023 0 -0.005268482144359946 
0.006501289670540389 0 -0.002261683713563997 0.001194816095447888 -0.003085739008885252 0 -0.005210426941801783 
0.006907755278982137 0 -0.002403085911177532 -2.168404344971009e-19 -0.003278661774567023 0 -0.005268482144359946 
0.007604639506862795 -0.005728420756072384 -0.001482056337108024 -0.001497818581698729 -0.000872146819601852 0.003335602163030894 -0.006366265998396014 
-0.004927074511513068 -0.01180215322654051 0.009605143034822987 0.005278901684280271 -0.01029409645322421 -0.00693679542680143 -0.003894771654968415 
0.008900872346479766 0 -0.002261683713563997 -0.001639089791705988 -0.003085739008885252 -0.0001366155085679327 -0.004958474520481398 
0.008117827227131596 -0.002670523486778166 -0.00764902378382199 -0.003105029602403649 -0.01021508835985947 -0.006214608098422191 -0.004700816093220051 
0.006907755278982137 0 -0.002403085911177532 -2.168404344971009e-19 -0.003278661774567023 0 -0.005268482144359946 
0.00132225792985739 -0.001691228120807022 -0.005909511511088076 -0.002055258266783892 -0.01188556442117815 -0.006259970025171948 0.007366474731052284 
3.206585553883522e-05 -0.005814630560728091 0.004239605956976391 -0.00575359015002171 -0.006275629592666573 -0.00406615735464524 -0.01145976419102179 
0.006907755278982137 0 -0.002403085911177532 -2.168404344971009e-19 -0.003278661774567023 0 -0.005268482144359946 
0.003611213074408257 -0.003679667346301325 -0.003326665359156773 0.003484289908401896 -0.007487990648941769 -0.004924894506843873 0.006347841189371717 
-0.001554755032277101 -0.008123331708374239 0.006814080621676257 -0.00547951626039454 -0.005352272253400433 0.004248773163921631 0.005313873192019937 
-0.02800367302535937 -0.02659758408230731 -0.01686723254596541 -0.01941891964391385 -0.0157488379744234 -0.01856775843297079 -0.00796703828843918 
-0.02086299662902413 -0.01198549331132115 -0.01080322041165315 -0.01695111861890525 -0.008175333545343324 -0.003609753178059046 -0.01508456416569826 
0.004222635047491043 -0.01062847833341338 -0.01008016932555287 -0.008402991929627339 -0.0005257777104048316 0.0008190385408965233 -0.005438374063644526 
-0.006385186493852108 -0.005440046772237091 -0.009472785983447234 -0.01269158713727596 -0.004367786046657175 0.004685815471439222 -0.004440181133433018 
-0.01610994288188523 -0.007579393538077513 0.0006139374959648511 -0.003965753341563378 -0.006996151382235105 -0.02095817947674144 -0.004770234325282962 
-0.005285515754607964 -0.003877518050256893 -0.002026580609954065 -0.01583559040730368 -0.009842205090703453 -0.01985995992995689 0.004713300138006495 
-0.003300028755768187 0.01164950955728668 -0.01076654983400583 -0.006251651814264659 0.002131763086464456 -0.006184974333633144 -0.00292491833491003 
-0.01503474509806388 -0.01150127296883106 9.337996919931628e-06 -0.01663991061981381 -0.001651556117356471 -0.006981140100496548 -0.01095611286086985 
-0.02219498106808924 -0.0179785782917819 -0.01682978163608009 -0.01949926676695437 0.002555550380666706 -0.01885276932377776 -0.01354635954907663 
-0.02487999768108849 -0.01159183038190781 -0.01216289035414517 -0.01425273918925687 -0.01228851190382423 -0.02114841465270828 -0.005410661330171882 
-0.02138052992478395 -0.0114045151580745 -0.01196634723247366 -0.01277503609875635 -0.01256144036813843 -0.02080667224500584 -0.005323229129668897 
0.02039086762359679 -0.004986999564324626 -0.008335040835644096 -0.01066629564533788 0.0004118494692610709 -0.01230101378415981 -0.0123834182616702 
0.02039086762359679 -0.004986999564324626 -0.008335040835644096 -0.01066629564533788 0.0004118494692610709 -0.01230101378415981 -0.0123834182616702 
0.00363067666325488 -0.01095122847014906 -0.008128940845650348 0.01570162974461201 -0.01257873029678957 -0.01059265304238192 -0.01491140079655643 
0.001534657182416418 0.01166894538640293 -0.004300447270767303 -0.01291864965680142 -0.009583147348308627 -0.01374670044083345 -0.01455199695046065 
-0.0007779126651538625 -0.005835173193935872 0.006561920143863245 -0.001951725407790351 0.002681013970659717 -0.001113611041094276 0.000785113728797373 
-0.01516655579492651 -0.006965096197440097 0.00846078056394859 -0.01694544558436247 -0.009969730921084335 -0.008928055484232637 -0.01650309740160108 
-0.005528451040774571 0.003236327582415469 -0.009237760997336772 -0.01897071467711023 -0.02408030136079809 -0.003879531826253699 -0.01191058442249242 
0.00940203224896885 -0.007780942491340699 -0.0009652944794655788 -0.004679020338182918 0.01511260905015171 -0.0111573213153239 -0.002318445335387495 
-0.002338892463063986 -0.0102957661281995 0.004483829836780465 0.003465694110617946 -0.006992683420751236 -0.001871519852650907 -0.0005844713001443898 
-0.01257141492151078 -0.01877119152141265 -0.007778907877085515 0.0211258558341138 -0.01613919946525861 -0.01450499449502979 -0.01208053578222455 
-0.004042190595152613 0.005568961601097749 -0.005412579271499054 -0.001634949066072452 -0.009974156532978971 0.0009763623468580381 0.002023946366035013 
0.003948927594424427 -0.004549835237315763 -0.005568497079321525 0.003223892109177497 -0.01205326044485079 0.001272629156470018 -0.00419372176966397 
-0.006090906073817303 -0.002899356432809074 -0.003465680720760694 -0.003726224771628637 -0.01003131758640977 -0.01802919627687728 -0.008248631138843231 
0.005307167140575349 -0.000572316086431857 -0.002290553925423733 -0.000577368896858793 -0.0002894595896492628 0 -0.0004268319244539867 
0.02462489632827512 -0.01891402994730533 -0.008616600109455664 -0.01710822393065857 -0.02430087919474797 -0.01535750467195451 -0.005659521267246882 
0.00477462830680354 0.001485659819382198 -0.002060712112677592 -0.0005194337780194863 -0.0002604142499769242 0.001024042001346615 -0.0003840021869981093 
-0.01079717726928832 -0.01386231609865685 -0.00796101369214689 -0.003871715412022777 -0.003533506198993233 -0.006603837925964693 -0.001429748745510779 
-0.001506406453435745 -0.007039929577533704 -0.008429629352661106 -0.006271279908756756 -0.006773716901127358 -0.006501289670540389 0.006099573357579389 
0.005307167140575349 -0.000572316086431857 -0.002290553925423733 -0.000577368896858793 -0.0002894595896492628 0 -0.0004268319244539867 
0.001049929831331117 -0.005578448591719766 -0.00198671957577477 -0.002442953313164838 0.004093308449967558 0.001905447021309167 -0.002034936809891173 
0.004067118022414262 0.001847440870067557 -0.002908028225538131 0.0003122669404656312 -0.001774624624740853 -0.0005203181337637009 0.003633269722591835 
-0.0007460497509788747 0.00433560100892455 -0.005073746897198234 -0.003418580333239514 -0.003070535575641685 0.001939946333139769 -0.006642831145279808 
0.005307167140575349 -0.000572316086431857 -0.002290553925423733 -0.000577368896858793 -0.0002894595896492628 0 -0.0004268319244539867 
0.008934841518953155 -0.01330092224340033 -0.009065069947629449 -0.005937014802537064 -0.004577614864526508 -0.007113617123889861 -0.007991407813598309 
0.008767632430331993 -0.0005386399069933169 -0.002155773326319594 -0.0005433954003350959 -0.000272427230586968 9.486769009248164e-20 -0.002759005836189692 
0.003147664029655439 -0.001974666635138473 0.0004768601356573415 0.003624095004261354 0.003585430219383585 -0.006595161268850054 -0.003406239978634576 
0.005307167140575349 -0.000572316086431857 -0.002290553925423733 -0.000577368896858793 -0.0002894595896492628 0 -0.0004268319244539867 
0.005307167140575349 -0.000572316086431857 -0.002290553925423733 -0.000577368896858793 -0.0002894595896492628 0 -0.0004268319244539867 
0.005307167140575349 -0.000572316086431857 -0.002290553925423733 -0.000577368896858793 -0.0002894595896492628 0 -0.0004268319244539867 
0.005307167140575349 -0.000572316086431857 -0.002290553925423733 -0.000577368896858793 -0.0002894595896492628 0 -0.0004268319244539867 
0.00247547181519412 -0.007442796241179266 0.001235342692887864 -0.00698163979595331 -0.005346995046740235 -4.336808689942018e-19 -0.00878962763653037 
0.008121131898939371 -0.003891708514983857 0.001196575013031735 -0.003679861605139386 -0.006936131210727659 -0.003932275140462661 -0.007260496323362615 
0.01313738706368694 -0.002380185481593157 0.00400474497133321 -0.0005007828355844754 -0.0006956158906294937 -0.0004551172266363843 -0.0080247497049231 
0.005307167140575349 -0.000572316086431857 -0.002290553925423733 -0.000577368896858793 -0.0002894595896492628 0 -0.0004268319244539867 
0.00403589770568816 -0.000514887983426188 -0.004220056881470542 -0.003313334132823314 0.005954193848445266 -0.0005436432284861569 0.00307668781468456 
0.005307167140575349 -0.000572316086431857 -0.002290553925423733 -0.000577368896858793 -0.0002894595896492628 0 -0.0004268319244539867 
0.005307167140575349 -0.000572316086431857 -0.002290553925423733 -0.000577368896858793 -0.0002894595896492628 0 -0.0004268319244539867 
0.009208278162767654 -0.0006994200486108587 -0.002324403475675812 -0.00134344524650973 0.002156278708230569 -0.003627081680775897 -0.003221912120020026 
0.008410083128122752 -0.005560684204966706 -0.003504607536834401 -0.001278160796265359 -0.004206187912059194 -0.001227720943004541 0.00176142046916124 
0.005307167140575349 -0.000572316086431857 -0.002290553925423733 -0.000577368896858793 -0.0002894595896492628 0 -0.0004268319244539867 
-0.01682712872725298 -0.0218863327177629 -0.02060397281715447 -0.02424570774079625 -0.004649534216920432 -0.01110933723150985 -0.008495587662393425 
0.001663791254597356 -0.003588748124613815 -0.003570388102003518 -0.0005194337780194863 -0.001766176566800406 0.002576561434458568 0.001386548966438312 
0.01149617288764503 -0.0005850481599732118 -0.006149114380320097 -0.0005433954003350959 -0.0002724272305869679 0 -0.001876892072065388 
0.005307167140575349 -0.000572316086431857 -0.002290553925423733 -0.000577368896858793 -0.0002894595896492628 0 -0.0004268319244539867 
0.00362825161740239 0.003902250781512605 -0.002236688627132144 -0.002924717018460941 -0.001248365441895471 -0.001650358420142109 -0.001831617464497499 
0.00362825161740239 0.003902250781512605 -0.002236688627132144 -0.002924717018460941 -0.001248365441895471 -0.001650358420142109 -0.001831617464497499 
0.00438909254154366 -0.0008556411879088191 -0.000411651967898136 0 -0.001242392266220371 -7.226384107508742e-05 -0.001328533921867817 
0.00438909254154366 -0.0008556411879088191 -0.000411651967898136 0 -0.001242392266220371 -7.226384107508742e-05 -0.001328533921867817 
0.00438909254154366 -0.0008556411879088191 -0.000411651967898136 0 -0.001242392266220371 -7.226384107508742e-05 -0.001328533921867817 
0.00438909254154366 -0.0008556411879088191 -0.000411651967898136 0 -0.001242392266220371 -7.226384107508742e-05 -0.001328533921867817 
0.00438909254154366 -0.0008556411879088191 -0.000411651967898136 0 -0.001242392266220371 -7.226384107508742e-05 -0.001328533921867817 
0.00438909254154366 -0.0008556411879088191 -0.000411651967898136 0 -0.001242392266220371 -7.226384107508742e-05 -0.001328533921867817 
-0.03288905418258444 -0.01204515465522485 0.02781356810785801 -0.0251613769995774 -0.03330709829282921 -0.02267394414947212 -0.03334426282109729 
0.01463796856435916 -0.003057295967716806 -0.00378126291761336 -0.00289403283646092 -0.002454099433782875 -0.002931731819561247 -0.002991132147214823 
0.007924290778206061 -0.001444270386430957 -0.003788936498989621 -0.001714816006252004 -0.002285711774953301 0.00556592081086811 -0.001195224401621377 
